{"learner":{"attributes":{"scikit_learn":"{\"_estimator_type\": \"classifier\"}"},"feature_names":[],"feature_types":[],"gradient_booster":{"model":{"gbtree_model_param":{"num_parallel_tree":"1","num_trees":"100"},"iteration_indptr":[0,1,2,3,4,5,6,7,8,9,10,11,12,13,14,15,16,17,18,19,20,21,22,23,24,25,26,27,28,29,30,31,32,33,34,35,36,37,38,39,40,41,42,43,44,45,46,47,48,49,50,51,52,53,54,55,56,57,58,59,60,61,62,63,64,65,66,67,68,69,70,71,72,73,74,75,76,77,78,79,80,81,82,83,84,85,86,87,88,89,90,91,92,93,94,95,96,97,98,99,100],"tree_info":[0,0,0,0,0,0,0,0,0,0,0,0,0,0,0,0,0,0,0,0,0,0,0,0,0,0,0,0,0,0,0,0,0,0,0,0,0,0,0,0,0,0,0,0,0,0,0,0,0,0,0,0,0,0,0,0,0,0,0,0,0,0,0,0,0,0,0,0,0,0,0,0,0,0,0,0,0,0,0,0,0,0,0,0,0,0,0,0,0,0,0,0,0,0,0,0,0,0,0,0],"trees":[{"base_weights":[-0E0,-1.7468355E0,1.483871E0,-1.8441558E0,3E-1,1.6201117E0,-3.818182E-1,-5.837838E-1,1.20000005E-1,1.7241379E0,-3.3333337E-1,1.7844311E0,5.454546E-2,5.748252E-1,8.5714287E-1,4.666667E-1,-8.5714296E-2],"categories":[],"categories_nodes":[],"categories_segments":[],"categories_sizes":[],"default_left":[0,0,0,0,0,0,0,0,0,0,0,0,0,0,0,0,0],"id":0,"left_children":[1,3,5,7,-1,9,-1,-1,-1,11,-1,13,-1,-1,15,-1,-1],"loss_changes":[2.2291875E2,1.2403412E1,1.9525543E1,9.573044E0,0E0,1.463002E1,0E0,0E0,0E0,3.7206879E0,0E0,3.454483E0,0E0,0E0,6.0317464E0,0E0,0E0],"parents":[2147483647,0,0,1,1,2,2,3,3,5,5,9,9,11,11,14,14],"right_children":[2,4,6,8,-1,10,-1,-1,-1,12,-1,14,-1,-1,16,-1,-1],"split_conditions":[5.941889E1,3.491866E-1,3.491866E-1,1.5863412E1,3E-1,3.2642376E-1,-3.818182E-1,-5.837838E-1,1.20000005E-1,6.4030395E0,-3.3333337E-1,-1.6220316E0,5.454546E-2,5.748252E-1,-2.410931E0,4.666667E-1,-8.5714296E-2],"split_indices":[1,156,249,2,0,98,0,0,0,4,0,6,0,0,11,0,0],"split_type":[0,0,0,0,0,0,0,0,0,0,0,0,0,0,0,0,0],"sum_hessian":[8.4E1,3.85E1,4.55E1,3.75E1,1E0,4.375E1,1.75E0,3.6E1,1.5E0,4.25E1,1.25E0,4.075E1,1.75E0,3.475E1,6E0,3.5E0,2.5E0],"tree_param":{"num_deleted":"0","num_feature":"370","num_nodes":"17","size_leaf_vector":"1"}},{"base_weights":[1.3425566E-3,-1.3408992E0,1.12991E0,-1.4214181E0,9.8638445E-2,1.2434521E0,-3.1697506E-1,-7.15484E-1,-4.447155E-1,1.3321196E0,-2.8256765E-1,7.667942E-2,-3.348852E-1,1.3816769E0,4.4155683E-2,4.4556424E-1,6.767652E-1,3.7503374E-1,-6.744654E-2],"categories":[],"categories_nodes":[],"categories_segments":[],"categories_sizes":[],"default_left":[0,0,0,0,0,0,0,0,0,0,0,0,0,0,0,0,0,0,0],"id":1,"left_children":[1,3,5,7,-1,9,-1,11,-1,13,-1,-1,-1,15,-1,-1,17,-1,-1],"loss_changes":[1.21284676E2,5.384079E0,1.2111679E1,4.4903564E-1,0E0,9.35553E0,0E0,2.1229632E0,0E0,2.1802216E0,0E0,0E0,0E0,1.8297195E0,0E0,0E0,3.8021035E0,0E0,0E0],"parents":[2147483647,0,0,1,1,2,2,3,3,5,5,7,7,9,9,13,13,16,16],"right_children":[2,4,6,8,-1,10,-1,12,-1,14,-1,-1,-1,16,-1,-1,18,-1,-1],"split_conditions":[5.941889E1,1.5863412E1,3.491866E-1,-8.613181E0,9.8638445E-2,3.2642376E-1,-3.1697506E-1,9.191733E0,-4.447155E-1,6.4030395E0,-2.8256765E-1,7.667942E-2,-3.348852E-1,-1.6220316E0,4.4155683E-2,4.4556424E-1,-2.410931E0,3.7503374E-1,-6.744654E-2],"split_indices":[1,2,249,7,0,98,0,3,0,4,0,0,0,6,0,0,11,0,0],"split_type":[0,0,0,0,0,0,0,0,0,0,0,0,0,0,0,0,0,0,0],"sum_hessian":[7.806573E1,3.5571384E1,4.2494343E1,3.407677E1,1.4946129E0,4.0806606E1,1.6877375E0,3.7214735E0,3.0355297E1,3.9590694E1,1.2159108E0,1.1930825E0,2.5283911E0,3.7841995E1,1.748699E0,3.203043E1,5.811567E0,3.3161533E0,2.4954135E0],"tree_param":{"num_deleted":"0","num_feature":"370","num_nodes":"19","size_leaf_vector":"1"}},{"base_weights":[-4.1590305E-3,-1.1386656E0,9.40345E-1,-1.217108E0,8.138004E-2,1.044354E0,-2.7319685E-1,-1.2635579E0,-4.4106406E-1,1.1278372E0,-2.459923E-1,-1.0705623E-1,-3.8579756E-1,-2.1906833E-1,2.2140076E-2,1.2765511E0,5.92974E-1,3.976444E-1,6.539813E-2,9.373359E-1,-3.773734E-1,1.2724006E-1,3.5727844E-1,-2.694302E-1,1.02187924E-1],"categories":[],"categories_nodes":[],"categories_segments":[],"categories_sizes":[],"default_left":[0,0,0,0,0,0,0,0,0,0,0,0,0,0,0,0,0,0,0,0,0,0,0,0,0],"id":2,"left_children":[1,3,5,7,-1,9,-1,11,13,15,-1,-1,-1,-1,-1,17,19,-1,-1,21,23,-1,-1,-1,-1],"loss_changes":[7.449448E1,3.8230743E0,8.25518E0,5.276909E-1,0E0,6.5880547E0,0E0,1.0785675E-1,5.356834E-1,2.0467415E0,0E0,0E0,0E0,0E0,0E0,1.0946388E0,3.5401225E0,0E0,0E0,4.4821024E-1,1.5063304E0,0E0,0E0,0E0,0E0],"parents":[2147483647,0,0,1,1,2,2,3,3,5,5,7,7,8,8,9,9,15,15,16,16,19,19,20,20],"right_children":[2,4,6,8,-1,10,-1,12,14,16,-1,-1,-1,-1,-1,18,20,-1,-1,22,24,-1,-1,-1,-1],"split_conditions":[5.941889E1,1.5863412E1,3.491866E-1,4.4912487E-1,8.138004E-2,3.2642376E-1,-2.7319685E-1,-9.654558E0,-4.638146E2,-1.0384267E-1,-2.459923E-1,-1.0705623E-1,-3.8579756E-1,-2.1906833E-1,2.2140076E-2,-1.2406837E0,-8.468885E0,3.976444E-1,6.539813E-2,-6.197338E0,-9.48014E0,1.2724006E-1,3.5727844E-1,-2.694302E-1,1.02187924E-1],"split_indices":[1,2,249,274,0,98,0,7,0,4,0,0,0,0,0,6,8,0,0,9,10,0,0,0,0],"split_type":[0,0,0,0,0,0,0,0,0,0,0,0,0,0,0,0,0,0,0,0,0,0,0,0,0],"sum_hessian":[6.752132E1,3.0581852E1,3.693946E1,2.9099636E1,1.4822158E0,3.538684E1,1.5526197E0,2.6863525E1,2.2361112E0,3.4248272E1,1.1385689E0,1.0568316E0,2.5806694E1,1.164052E0,1.0720593E0,2.5712465E1,8.535808E0,2.4335438E1,1.3770267E0,6.3251324E0,2.2106755E0,2.9756725E0,3.34946E0,1.1359757E0,1.0746998E0],"tree_param":{"num_deleted":"0","num_feature":"370","num_nodes":"25","size_leaf_vector":"1"}},{"base_weights":[-8.752137E-3,-1.0525125E0,7.7522826E-1,-1.069695E-1,-3.6478755E-1,1.0743407E0,1.1903167E-1,-2.697761E-1,2.6049575E-1,1.1377008E0,-4.1907884E-2,-2.685627E-1,3.1942415E-1,5.0069865E-2,3.6666092E-1,-8.01909E-1,7.027738E-1,-3.6911753E-1,8.014492E-2,2.6335758E-1,3.7700914E-2],"categories":[],"categories_nodes":[],"categories_segments":[],"categories_sizes":[],"default_left":[0,0,0,0,0,0,0,0,0,0,0,0,0,0,0,0,0,0,0,0,0],"id":3,"left_children":[1,3,5,7,-1,9,11,-1,-1,13,-1,15,-1,-1,-1,17,19,-1,-1,-1,-1],"loss_changes":[4.8379803E1,3.788643E0,6.5003147E0,4.515757E0,0E0,1.9336262E0,4.5739255E0,0E0,0E0,1.6037865E0,0E0,5.275825E0,0E0,0E0,0E0,3.2323847E0,2.6930416E-1,0E0,0E0,0E0,0E0],"parents":[2147483647,0,0,1,1,2,2,3,3,5,5,6,6,9,9,11,11,15,15,16,16],"right_children":[2,4,6,8,-1,10,12,-1,-1,14,-1,16,-1,-1,-1,18,20,-1,-1,-1,-1],"split_conditions":[5.8295204E1,-8.613181E0,-1.0384267E-1,-5.589774E0,-3.6478755E-1,-5.3351274E0,2.6609406E-1,-2.697761E-1,2.6049575E-1,-8.89863E0,-4.1907884E-2,1.4657593E1,3.1942415E-1,5.0069865E-2,3.6666092E-1,7.89781E1,2.6723145E1,-3.6911753E-1,8.014492E-2,2.6335758E-1,3.7700914E-2],"split_indices":[1,7,4,5,0,8,199,0,0,5,0,2,0,0,0,1,3,0,0,0,0],"split_type":[0,0,0,0,0,0,0,0,0,0,0,0,0,0,0,0,0,0,0,0,0],"sum_hessian":[5.7126087E1,2.435641E1,3.276968E1,3.8335576E0,2.0522852E1,2.2071611E1,1.0698069E1,2.1582477E0,1.6753098E0,2.1036592E1,1.0350184E0,8.096004E0,2.6020646E0,1.9227093E0,1.9113882E1,5.3389134E0,2.7570903E0,3.70359E0,1.6353236E0,1.7154919E0,1.0415984E0],"tree_param":{"num_deleted":"0","num_feature":"370","num_nodes":"21","size_leaf_vector":"1"}},{"base_weights":[-2.0566229E-3,-9.0047204E-1,7.3043007E-1,-1.0464344E0,2.463328E-1,8.793557E-1,-2.5329766E-1,-3.3251172E-1,2.1747574E-2,3.6803418E-1,1.049382E0,-2.7507484E-1,2.3993923E-1,8.477514E-1,-1.9675618E-1,3.3187577E-1,1.0509775E-1,5.3495727E-2,2.8933522E-1],"categories":[],"categories_nodes":[],"categories_segments":[],"categories_sizes":[],"default_left":[0,0,0,0,0,0,0,0,0,0,0,0,0,0,0,0,0,0,0],"id":4,"left_children":[1,3,5,7,-1,9,11,-1,-1,13,15,-1,-1,17,-1,-1,-1,-1,-1],"loss_changes":[3.26494E1,6.4583397E0,4.226948E0,1.5343437E0,0E0,1.6969967E0,3.7874005E0,0E0,0E0,4.2495112E0,3.058815E-1,0E0,0E0,2.621281E-1,0E0,0E0,0E0,0E0,0E0],"parents":[2147483647,0,0,1,1,2,2,3,3,5,5,6,6,9,9,10,10,13,13],"right_children":[2,4,6,8,-1,10,12,-1,-1,14,16,-1,-1,18,-1,-1,-1,-1,-1],"split_conditions":[-4.2714084E2,2.6609406E-1,4.824266E0,6.411915E1,2.463328E-1,-6.5006447E0,3.127089E-1,-3.3251172E-1,2.1747574E-2,-2.3469954E0,1.4995936E0,-2.7507484E-1,2.3993923E-1,-3.8408783E2,-1.9675618E-1,3.3187577E-1,1.0509775E-1,5.3495727E-2,2.8933522E-1],"split_indices":[0,199,4,1,0,5,174,0,0,11,4,0,0,0,0,0,0,0,0],"split_type":[0,0,0,0,0,0,0,0,0,0,0,0,0,0,0,0,0,0,0],"sum_hessian":[4.7613842E1,2.1281794E1,2.633205E1,1.997998E1,1.3018135E0,2.2961958E1,3.3700922E0,1.894094E1,1.0390391E0,6.5197177E0,1.6442242E1,2.1466637E0,1.2234285E0,4.55678E0,1.9629377E0,1.4666569E1,1.7756721E0,1.0517216E0,3.505058E0],"tree_param":{"num_deleted":"0","num_feature":"370","num_nodes":"19","size_leaf_vector":"1"}},{"base_weights":[8.258916E-3,-8.815171E-1,6.1935645E-1,-2.7596613E-2,-3.197E-1,7.1056527E-1,-2.0670395E-1,-2.157347E-1,2.0724478E-1,7.991895E-1,-1.869781E-1,9.739243E-1,3.6943594E-1,3.113178E-1,4.7781955E-2,7.1095693E-1,-2.2567958E-1,-7.256761E-2,2.8507134E-1],"categories":[],"categories_nodes":[],"categories_segments":[],"categories_sizes":[],"default_left":[0,0,0,0,0,0,0,0,0,0,0,0,0,0,0,0,0,0,0],"id":5,"left_children":[1,3,5,7,-1,9,-1,-1,-1,11,-1,13,15,-1,-1,17,-1,-1,-1],"loss_changes":[2.2636229E1,2.6366234E0,3.433856E0,2.500948E0,0E0,3.2827272E0,0E0,0E0,0E0,1.3318329E0,0E0,6.353731E-1,3.646595E0,0E0,0E0,1.7668216E0,0E0,0E0,0E0],"parents":[2147483647,0,0,1,1,2,2,3,3,5,5,9,9,11,11,12,12,15,15],"right_children":[2,4,6,8,-1,10,-1,-1,-1,12,-1,14,16,-1,-1,18,-1,-1,-1],"split_conditions":[5.8295204E1,-8.613181E0,3.2642376E-1,-5.589774E0,-3.197E-1,3.491866E-1,-2.0670395E-1,-2.157347E-1,2.0724478E-1,-8.390546E0,-1.869781E-1,6.4030395E0,-1.9459342E0,3.113178E-1,4.7781955E-2,-4.3279565E2,-2.2567958E-1,-7.256761E-2,2.8507134E-1],"split_indices":[1,7,98,5,0,249,0,0,0,8,0,4,11,0,0,0,0,0,0],"split_type":[0,0,0,0,0,0,0,0,0,0,0,0,0,0,0,0,0,0,0],"sum_hessian":[3.962651E1,1.5954204E1,2.3672306E1,3.034194E0,1.292001E1,2.2556742E1,1.1155643E0,1.5455358E0,1.4886582E0,2.1527224E1,1.0295179E0,1.4404298E1,7.1229258E0,1.3104179E1,1.3001179E0,5.741123E0,1.3818029E0,1.1501513E0,4.5909715E0],"tree_param":{"num_deleted":"0","num_feature":"370","num_nodes":"19","size_leaf_vector":"1"}},{"base_weights":[-3.3631015E-3,-3.025408E-1,4.43645E-1,7.306084E-1,-5.899939E-2,-3.7256595E-2,8.6459035E-1,-3.597501E-1,2.427993E-1,-2.510721E-2,3.0287164E-1,1.81231E-1,-6.678351E-1,-2.8204906E-1,4.5569867E-2],"categories":[],"categories_nodes":[],"categories_segments":[],"categories_sizes":[],"default_left":[0,0,0,0,0,0,0,0,0,0,0,0,0,0,0],"id":6,"left_children":[1,-1,3,5,7,-1,9,11,-1,-1,-1,-1,13,-1,-1],"loss_changes":[1.5591728E1,0E0,3.5085568E0,1.8675146E0,2.813028E0,0E0,1.9284E0,2.7388833E0,0E0,0E0,0E0,0E0,1.5792866E0,0E0,0E0],"parents":[2147483647,0,0,2,2,3,3,4,4,6,6,7,7,12,12],"right_children":[2,-1,4,6,8,-1,10,12,-1,-1,-1,-1,14,-1,-1],"split_conditions":[5.2922886E1,-3.025408E-1,-1.0384267E-1,-8.34638E0,2.6609406E-1,-3.7256595E-2,-4.537965E2,-1.3023309E1,2.427993E-1,-2.510721E-2,3.0287164E-1,1.81231E-1,1.5152871E1,-2.8204906E-1,4.5569867E-2],"split_indices":[1,0,4,5,199,0,0,8,0,0,0,0,2,0,0],"split_type":[0,0,0,0,0,0,0,0,0,0,0,0,0,0,0],"sum_hessian":[3.270719E1,9.681688E0,2.3025503E1,1.4368749E1,8.656755E0,1.9569046E0,1.2411844E1,6.864796E0,1.7919588E0,1.7020452E0,1.0709799E1,1.4300396E0,5.4347568E0,3.9692116E0,1.4655449E0],"tree_param":{"num_deleted":"0","num_feature":"370","num_nodes":"15","size_leaf_vector":"1"}},{"base_weights":[1.6997757E-3,-2.8738242E-1,3.9190066E-1,5.018643E-1,-2.0250277E-1,6.176274E-1,-1.991511E-1,-7.787614E-2,7.068839E-1,8.060039E-1,-4.396773E-2,2.8388152E-1,6.7835145E-2],"categories":[],"categories_nodes":[],"categories_segments":[],"categories_sizes":[],"default_left":[0,0,0,0,0,0,0,0,0,0,0,0,0],"id":7,"left_children":[1,-1,3,5,-1,7,-1,-1,9,11,-1,-1,-1],"loss_changes":[1.1058111E1,0E0,2.801526E0,3.055441E0,0E0,1.620317E0,0E0,0E0,1.5498438E0,1.0319433E0,0E0,0E0,0E0],"parents":[2147483647,0,0,2,2,3,3,5,5,8,8,9,9],"right_children":[2,-1,4,6,-1,8,-1,-1,10,12,-1,-1,-1],"split_conditions":[5.2922886E1,-2.8738242E-1,3.491866E-1,3.2642376E-1,-2.0250277E-1,-4.5551797E2,-1.991511E-1,-7.787614E-2,6.4030395E0,-1.6220316E0,-4.396773E-2,2.8388152E-1,6.7835145E-2],"split_indices":[1,0,249,98,0,0,0,0,4,6,0,0,0],"split_type":[0,0,0,0,0,0,0,0,0,0,0,0,0],"sum_hessian":[2.752881E1,7.5371966E0,1.9991613E1,1.8603779E1,1.3878338E0,1.735087E1,1.2529085E0,1.4261651E0,1.59247055E1,1.4317444E1,1.6072621E0,1.1020012E1,3.2974312E0],"tree_param":{"num_deleted":"0","num_feature":"370","num_nodes":"13","size_leaf_vector":"1"}},{"base_weights":[-1.6090194E-2,-7.2014385E-1,4.102805E-1,1.39389625E-2,-2.7936885E-1,6.710097E-1,-3.854888E-2,1.14009E-1,-1.02906406E-1,2.6977614E-1,7.5584557E-3,-3.585572E-1,2.1322607E-1,1.20170824E-1,-1.12767376E-1,-2.3490344E-1,1.2221768E-1],"categories":[],"categories_nodes":[],"categories_segments":[],"categories_sizes":[],"default_left":[0,0,0,0,0,0,0,0,0,0,0,0,0,0,0,0,0],"id":8,"left_children":[1,3,5,7,-1,9,11,-1,-1,-1,13,15,-1,-1,-1,-1,-1],"loss_changes":[7.568676E0,1.4852839E0,1.8663273E0,5.3641254E-1,0E0,1.5078874E0,1.8673215E0,0E0,0E0,0E0,6.8838996E-1,2.0670896E0,0E0,0E0,0E0,0E0,0E0],"parents":[2147483647,0,0,1,1,2,2,3,3,5,5,6,6,10,10,11,11],"right_children":[2,4,6,8,-1,10,12,-1,-1,-1,14,16,-1,-1,-1,-1,-1],"split_conditions":[5.8295204E1,-8.613181E0,2.1005259E1,-5.5924153E0,-2.7936885E-1,-1.4433107E0,3.127089E-1,1.14009E-1,-1.02906406E-1,2.6977614E-1,-7.696027E0,1.4657593E1,2.1322607E-1,1.20170824E-1,-1.12767376E-1,-2.3490344E-1,1.2221768E-1],"split_indices":[1,7,3,10,0,6,174,0,0,0,7,2,0,0,0,0,0],"split_type":[0,0,0,0,0,0,0,0,0,0,0,0,0,0,0,0,0],"sum_hessian":[2.3228882E1,8.501534E0,1.4727347E1,2.1072412E0,6.394293E0,9.002619E0,5.7247286E0,1.0084094E0,1.0988318E0,6.4338083E0,2.56881E0,4.3769298E0,1.3477987E0,1.2465407E0,1.3222694E0,2.8019443E0,1.5749855E0],"tree_param":{"num_deleted":"0","num_feature":"370","num_nodes":"17","size_leaf_vector":"1"}},{"base_weights":[-8.827049E-3,-2.597135E-1,2.887152E-1,3.9212805E-1,-1.7838556E-1,6.5708584E-1,-3.807614E-2,2.8684516E-3,8.2044876E-1,3.3367136E-1,-2.0895368E-1,9.202829E-2,2.7243802E-1,-1.02121204E-1,5.926817E-1,2.0757492E-1,4.802194E-2],"categories":[],"categories_nodes":[],"categories_segments":[],"categories_sizes":[],"default_left":[0,0,0,0,0,0,0,0,0,0,0,0,0,0,0,0,0],"id":9,"left_children":[1,-1,3,5,-1,7,9,-1,11,13,-1,-1,-1,-1,15,-1,-1],"loss_changes":[5.5780196E0,0E0,1.7186191E0,1.7530272E0,0E0,9.9036264E-1,1.8780884E0,0E0,6.027937E-2,1.070049E0,0E0,0E0,0E0,0E0,5.914116E-2,0E0,0E0],"parents":[2147483647,0,0,2,2,3,3,5,5,6,6,8,8,9,9,14,14],"right_children":[2,-1,4,6,-1,8,10,-1,12,14,-1,-1,-1,-1,16,-1,-1],"split_conditions":[5.2922886E1,-2.597135E-1,3.491866E-1,-1.9459342E0,-1.7838556E-1,-4.3279565E2,-8.857563E0,2.8684516E-3,-1.0374584E1,-8.892974E-1,-2.0895368E-1,9.202829E-2,2.7243802E-1,-1.02121204E-1,-1.0757445E1,2.0757492E-1,4.802194E-2],"split_indices":[1,0,249,11,0,0,8,0,9,11,0,0,0,0,12,0,0],"split_type":[0,0,0,0,0,0,0,0,0,0,0,0,0,0,0,0,0],"sum_hessian":[1.9897743E1,4.636284E0,1.526146E1,1.4159834E1,1.1016254E0,8.436507E0,5.7233276E0,1.9128888E0,6.523618E0,3.973282E0,1.7500454E0,1.607036E0,4.916582E0,1.0156918E0,2.9575903E0,1.9181802E0,1.0394101E0],"tree_param":{"num_deleted":"0","num_feature":"370","num_nodes":"17","size_leaf_vector":"1"}},{"base_weights":[-1.3034143E-2,-2.4524833E-1,2.4479151E-1,4.920262E-1,-1.6253452E-1,-2.9664649E-2,6.158438E-1,-1.8384467E-1,3.361965E-1,2.0456329E-2,2.605965E-1,-2.4943782E-2,1.757035E-1,1.119114E-1,-1.0754248E-1],"categories":[],"categories_nodes":[],"categories_segments":[],"categories_sizes":[],"default_left":[0,0,0,0,0,0,0,0,0,0,0,0,0,0,0],"id":10,"left_children":[1,-1,3,5,7,-1,9,-1,11,13,-1,-1,-1,-1,-1],"loss_changes":[3.9828649E0,0E0,1.5483565E0,7.429335E-1,1.6116282E0,0E0,1.1631203E0,0E0,4.2694634E-1,5.829665E-1,0E0,0E0,0E0,0E0,0E0],"parents":[2147483647,0,0,2,2,3,3,4,4,6,6,8,8,9,9],"right_children":[2,-1,4,6,8,-1,10,-1,12,14,-1,-1,-1,-1,-1],"split_conditions":[5.2922886E1,-2.4524833E-1,2.1005259E1,2.9870062E0,6.99299E1,-2.9664649E-2,-6.6889315E0,-1.8384467E-1,-6.197338E0,-8.2531E0,2.605965E-1,-2.4943782E-2,1.757035E-1,1.119114E-1,-1.0754248E-1],"split_indices":[1,0,3,2,1,0,5,0,9,9,0,0,0,0,0],"split_type":[0,0,0,0,0,0,0,0,0,0,0,0,0,0,0],"sum_hessian":[1.7237986E1,3.6569495E0,1.3581036E1,8.321931E0,5.2591047E0,1.4765612E0,6.8453693E0,2.6435852E0,2.6155198E0,2.3624816E0,4.4828877E0,1.224328E0,1.3911916E0,1.2318461E0,1.1306355E0],"tree_param":{"num_deleted":"0","num_feature":"370","num_nodes":"15","size_leaf_vector":"1"}},{"base_weights":[-1.250337E-2,-5.09293E-1,3.6420476E-1,1.91618E-2,-6.971494E-1,6.677579E-1,-9.672859E-3,-2.4098895E-1,-6.3668154E-2,-8.132909E-4,2.4680233E-1,-2.8207397E-1,1.7596874E-1,-1.644621E-1,2.832518E-2],"categories":[],"categories_nodes":[],"categories_segments":[],"categories_sizes":[],"default_left":[0,0,0,0,0,0,0,0,0,0,0,0,0,0,0],"id":11,"left_children":[1,3,5,-1,7,9,11,-1,-1,-1,-1,13,-1,-1,-1],"loss_changes":[3.2425954E0,8.4797E-1,1.1270372E0,0E0,1.2311411E-1,5.6971645E-1,1.0441289E0,0E0,0E0,0E0,0E0,4.9149865E-1,0E0,0E0,0E0],"parents":[2147483647,0,0,1,1,2,2,4,4,5,5,6,6,11,11],"right_children":[2,4,6,-1,8,10,12,-1,-1,-1,-1,14,-1,-1,-1],"split_conditions":[6.1846832E1,-8.613181E0,-1.0384267E-1,1.91618E-2,5.8295204E1,-7.30839E0,3.127089E-1,-2.4098895E-1,-6.3668154E-2,-8.132909E-4,2.4680233E-1,-7.001661E0,1.7596874E-1,-1.644621E-1,2.832518E-2],"split_indices":[1,7,4,0,1,5,174,0,0,0,0,7,0,0,0],"split_type":[0,0,0,0,0,0,0,0,0,0,0,0,0,0,0],"sum_hessian":[1.5335532E1,6.4618764E0,8.873655E0,1.758015E0,4.703861E0,4.4636016E0,4.410054E0,3.3204775E0,1.3833838E0,1.022178E0,3.4414234E0,3.3887496E0,1.0213046E0,1.7181406E0,1.6706089E0],"tree_param":{"num_deleted":"0","num_feature":"370","num_nodes":"15","size_leaf_vector":"1"}},{"base_weights":[-8.927379E-3,-3.38087E-1,4.4388664E-1,-5.369851E-1,1.0731159E-1,3.2614306E-2,6.410892E-1,-7.2657883E-1,-7.4161805E-2,-1.6095349E-1,1.7191327E-1,2.269082E-1,3.8403705E-2,-7.021716E-2,-2.424932E-1,-1.3471192E-1,8.5661255E-2],"categories":[],"categories_nodes":[],"categories_segments":[],"categories_sizes":[],"default_left":[0,0,0,0,0,0,0,0,0,0,0,0,0,0,0,0,0],"id":12,"left_children":[1,3,5,7,-1,9,11,13,15,-1,-1,-1,-1,-1,-1,-1,-1],"loss_changes":[2.3521426E0,1.4546161E0,5.185406E-1,6.03755E-1,0E0,1.2945228E0,1.6589487E-1,2.0253181E-2,5.720705E-1,0E0,0E0,0E0,0E0,0E0,0E0,0E0,0E0],"parents":[2147483647,0,0,1,1,2,2,3,3,5,5,6,6,7,7,8,8],"right_children":[2,4,6,8,-1,10,12,14,16,-1,-1,-1,-1,-1,-1,-1,-1],"split_conditions":[6.766753E1,1.5152871E1,-6.6889315E0,-3.0607169E0,1.0731159E-1,-9.116722E0,4.004606E0,9.990945E0,5.8888316E0,-1.6095349E-1,1.7191327E-1,2.269082E-1,3.8403705E-2,-7.021716E-2,-2.424932E-1,-1.3471192E-1,8.5661255E-2],"split_indices":[1,2,5,6,0,10,4,3,2,0,0,0,0,0,0,0,0],"split_type":[0,0,0,0,0,0,0,0,0,0,0,0,0,0,0,0,0],"sum_hessian":[1.3774227E1,8.122896E0,5.6513314E0,6.4945993E0,1.6282966E0,2.2092514E0,3.44208E0,4.20298E0,2.2916188E0,1.0795885E0,1.1296628E0,2.4234457E0,1.0186346E0,1.1481097E0,3.0548706E0,1.0005121E0,1.2911068E0],"tree_param":{"num_deleted":"0","num_feature":"370","num_nodes":"17","size_leaf_vector":"1"}},{"base_weights":[-5.805342E-3,-2.0781218E-1,1.8163697E-1,7.3824893E-3,2.1858178E-1,-3.6103725E-1,2.7864778E-1,2.6745081E-2,-2.032923E-1,1.976692E-1,-1.0867209E-1,-1.4227417E-1,9.676091E-2],"categories":[],"categories_nodes":[],"categories_segments":[],"categories_sizes":[],"default_left":[0,0,0,0,0,0,0,0,0,0,0,0,0],"id":13,"left_children":[1,-1,3,5,-1,7,9,-1,-1,-1,11,-1,-1],"loss_changes":[1.8448592E0,0E0,1.0698612E0,1.0566093E0,0E0,7.0067644E-1,9.6613485E-1,0E0,0E0,0E0,7.626031E-1,0E0,0E0],"parents":[2147483647,0,0,2,2,3,3,5,5,6,6,10,10],"right_children":[2,-1,4,6,-1,8,10,-1,-1,-1,12,-1,-1],"split_conditions":[5.2922886E1,-2.0781218E-1,2.6609406E-1,-4.006002E2,2.1858178E-1,1.44876585E1,-1.0384267E-1,2.6745081E-2,-2.032923E-1,1.976692E-1,-7.001661E0,-1.4227417E-1,9.676091E-2],"split_indices":[1,0,199,0,0,3,4,0,0,0,7,0,0],"split_type":[0,0,0,0,0,0,0,0,0,0,0,0,0],"sum_hessian":[1.2351285E1,2.0699954E0,1.028129E1,8.565859E0,1.7154315E0,3.4921062E0,5.0737524E0,1.738501E0,1.7536051E0,2.2064292E0,2.867323E0,1.4977405E0,1.3695823E0],"tree_param":{"num_deleted":"0","num_feature":"370","num_nodes":"13","size_leaf_vector":"1"}},{"base_weights":[-5.688843E-3,-2.8887978E-1,3.8890377E-1,-4.658416E-1,8.399636E-2,1.1081025E-2,5.525002E-1,-1.1572147E-2,-1.8048981E-1,1.9790442E-1,4.566384E-2],"categories":[],"categories_nodes":[],"categories_segments":[],"categories_sizes":[],"default_left":[0,0,0,0,0,0,0,0,0,0,0],"id":14,"left_children":[1,3,5,7,-1,-1,9,-1,-1,-1,-1],"loss_changes":[1.4553646E0,8.9256436E-1,2.9328036E-1,3.3360338E-1,0E0,0E0,5.607736E-2,0E0,0E0,0E0,0E0],"parents":[2147483647,0,0,1,1,2,2,3,3,6,6],"right_children":[2,4,6,8,-1,-1,10,-1,-1,-1,-1],"split_conditions":[6.766753E1,1.5152871E1,-6.6889315E0,-8.613181E0,8.399636E-2,1.1081025E-2,1.2169205E1,-1.1572147E-2,-1.8048981E-1,1.9790442E-1,4.566384E-2],"split_indices":[1,2,5,7,0,0,2,0,0,0,0],"split_type":[0,0,0,0,0,0,0,0,0,0,0],"sum_hessian":[1.1018591E1,6.570781E0,4.44781E0,5.1498785E0,1.4209027E0,1.8003196E0,2.6474905E0,1.551654E0,3.5982246E0,1.5771675E0,1.070323E0],"tree_param":{"num_deleted":"0","num_feature":"370","num_nodes":"11","size_leaf_vector":"1"}},{"base_weights":[8.322717E-3,-1.5475848E-1,1.9990475E-1,-4.814122E-1,2.3046006E-1,-1.5549638E-2,-1.8946806E-1,1.7017531E-1,-1.6743131E-1,-1.3155289E-1,5.585734E-2],"categories":[],"categories_nodes":[],"categories_segments":[],"categories_sizes":[],"default_left":[0,0,0,0,0,0,0,0,0,0,0],"id":15,"left_children":[1,3,-1,5,7,-1,-1,-1,9,-1,-1],"loss_changes":[1.3197144E0,1.3562977E0,0E0,3.3358085E-1,7.941649E-1,0E0,0E0,0E0,3.8493946E-1,0E0,0E0],"parents":[2147483647,0,0,1,1,3,3,4,4,8,8],"right_children":[2,4,-1,6,8,-1,-1,-1,10,-1,-1],"split_conditions":[2.6609406E-1,-3.9784872E2,1.9990475E-1,-8.477407E0,-2.3362513E0,-1.5549638E-2,-1.8946806E-1,1.7017531E-1,-7.001661E0,-1.3155289E-1,5.585734E-2],"split_indices":[199,0,0,7,11,0,0,0,7,0,0],"split_type":[0,0,0,0,0,0,0,0,0,0,0],"sum_hessian":[1.0336981E1,8.896853E0,1.4401269E0,4.6792655E0,4.2175884E0,1.5603217E0,3.1189437E0,2.0536525E0,2.1639357E0,1.0890479E0,1.0748879E0],"tree_param":{"num_deleted":"0","num_feature":"370","num_nodes":"11","size_leaf_vector":"1"}},{"base_weights":[1.5500472E-2,-1.295223E-1,1.8312556E-1,-3.141553E-1,1.3349855E-1,-5.3740543E-1,7.898093E-2,-1.3877447E-1,-2.232768E-1,6.9999635E-2,-1.397004E-1],"categories":[],"categories_nodes":[],"categories_segments":[],"categories_sizes":[],"default_left":[0,0,0,0,0,0,0,0,0,0,0],"id":16,"left_children":[1,3,-1,5,-1,7,-1,9,-1,-1,-1],"loss_changes":[9.8259985E-1,1.1204567E0,0E0,1.118967E0,0E0,3.7473845E-1,0E0,4.9908102E-1,0E0,0E0,0E0],"parents":[2147483647,0,0,1,1,3,3,5,5,7,7],"right_children":[2,4,-1,6,-1,8,-1,10,-1,-1,-1],"split_conditions":[2.6609406E-1,7.89781E1,1.8312556E-1,1.51056385E1,1.3349855E-1,1.4321523E1,7.898093E-2,-7.696027E0,-2.232768E-1,6.9999635E-2,-1.397004E-1],"split_indices":[199,1,0,2,0,3,0,7,0,0,0],"split_type":[0,0,0,0,0,0,0,0,0,0,0],"sum_hessian":[9.472555E0,8.244969E0,1.2275854E0,6.5826755E0,1.6622941E0,4.797228E0,1.7854475E0,2.2097027E0,2.5875251E0,1.1672372E0,1.0424654E0],"tree_param":{"num_deleted":"0","num_feature":"370","num_nodes":"11","size_leaf_vector":"1"}},{"base_weights":[2.0226302E-2,-3.4538782E-1,2.3020463E-1,1.4690843E-2,-1.584182E-1,3.7903172E-1,-6.753028E-2,1.8639284E-1,4.2801246E-2,-1.0926733E-1,1.19587466E-1],"categories":[],"categories_nodes":[],"categories_segments":[],"categories_sizes":[],"default_left":[0,0,0,0,0,0,0,0,0,0,0],"id":17,"left_children":[1,3,5,-1,-1,7,-1,-1,9,-1,-1],"loss_changes":[8.1717336E-1,3.0718333E-1,5.395558E-1,0E0,0E0,4.153046E-1,0E0,0E0,6.2976056E-1,0E0,0E0],"parents":[2147483647,0,0,1,1,2,2,5,5,8,8],"right_children":[2,4,6,-1,-1,8,-1,-1,10,-1,-1],"split_conditions":[5.941889E1,-8.613181E0,4.824266E0,1.4690843E-2,-1.584182E-1,-2.721413E0,-6.753028E-2,1.8639284E-1,-6.5341635E0,-1.0926733E-1,1.19587466E-1],"split_indices":[1,7,4,0,0,11,0,0,9,0,0],"split_type":[0,0,0,0,0,0,0,0,0,0,0],"sum_hessian":[8.608617E0,2.9052038E0,5.703413E0,1.1514219E0,1.7537819E0,4.4246397E0,1.278773E0,2.078829E0,2.345811E0,1.0831681E0,1.2626426E0],"tree_param":{"num_deleted":"0","num_feature":"370","num_nodes":"11","size_leaf_vector":"1"}},{"base_weights":[1.53213395E-2,-1.2406624E-1,1.6660143E-1,-3.5593542E-1,2.2059578E-1,-5.466995E-1,4.850253E-2,1.3969743E-1,-2.8707674E-2,-1.9197872E-1,-4.3105703E-2],"categories":[],"categories_nodes":[],"categories_segments":[],"categories_sizes":[],"default_left":[0,0,0,0,0,0,0,0,0,0,0],"id":18,"left_children":[1,3,-1,5,7,9,-1,-1,-1,-1,-1],"loss_changes":[7.4575293E-1,7.150289E-1,0E0,5.963225E-1,3.4069687E-1,5.785513E-2,0E0,0E0,0E0,0E0,0E0],"parents":[2147483647,0,0,1,1,3,3,4,4,5,5],"right_children":[2,4,-1,6,8,10,-1,-1,-1,-1,-1],"split_conditions":[2.6609406E-1,6.766753E1,1.6660143E-1,1.5152871E1,-2.4183236E-1,-2.9957607E0,4.850253E-2,1.3969743E-1,-2.8707674E-2,-1.9197872E-1,-4.3105703E-2],"split_indices":[199,1,0,2,4,6,0,0,0,0,0],"split_type":[0,0,0,0,0,0,0,0,0,0,0],"sum_hessian":[7.992155E0,6.964701E0,1.027454E0,4.1440854E0,2.8206155E0,2.9870255E0,1.1570599E0,1.3231609E0,1.4974546E0,1.9484341E0,1.0385914E0],"tree_param":{"num_deleted":"0","num_feature":"370","num_nodes":"11","size_leaf_vector":"1"}},{"base_weights":[2.1653736E-2,-3.106523E-1,1.8012409E-1,2.218012E-2,-1.6313927E-1,3.0681765E-1,-5.9786923E-2,5.0133437E-1,-2.3416676E-2,1.876015E-1,3.4034085E-2],"categories":[],"categories_nodes":[],"categories_segments":[],"categories_sizes":[],"default_left":[0,0,0,0,0,0,0,0,0,0,0],"id":19,"left_children":[1,3,5,-1,-1,7,-1,9,-1,-1,-1],"loss_changes":[4.9933392E-1,3.1687912E-1,3.6561015E-1,0E0,0E0,4.2409036E-1,0E0,9.983331E-2,0E0,0E0,0E0],"parents":[2147483647,0,0,1,1,2,2,5,5,7,7],"right_children":[2,4,6,-1,-1,8,-1,10,-1,-1,-1],"split_conditions":[5.8295204E1,-8.613181E0,4.824266E0,2.218012E-2,-1.6313927E-1,-8.284456E0,-5.9786923E-2,2.1005259E1,-2.3416676E-2,1.876015E-1,3.4034085E-2],"split_indices":[1,7,4,0,0,8,0,3,0,0,0],"split_type":[0,0,0,0,0,0,0,0,0,0,0],"sum_hessian":[7.41953E0,2.0856621E0,5.333868E0,1.0449103E0,1.0407517E0,4.142084E0,1.1917839E0,2.5504694E0,1.5916148E0,1.4687572E0,1.0817122E0],"tree_param":{"num_deleted":"0","num_feature":"370","num_nodes":"11","size_leaf_vector":"1"}},{"base_weights":[1.6853746E-2,-1.3760321E-1,9.64051E-2,1.4052986E-1,-3.320042E-1,-5.782445E-2,1.1764199E-1,-1.441427E-1,9.549982E-3],"categories":[],"categories_nodes":[],"categories_segments":[],"categories_sizes":[],"default_left":[0,0,0,0,0,0,0,0,0],"id":20,"left_children":[1,3,-1,5,7,-1,-1,-1,-1],"loss_changes":[4.2183107E-1,3.725337E-1,0E0,3.4242508E-1,2.2299433E-1,0E0,0E0,0E0,0E0],"parents":[2147483647,0,0,1,1,3,3,4,4],"right_children":[2,4,-1,6,8,-1,-1,-1,-1],"split_conditions":[7.4167305E1,1.4321523E1,9.64051E-2,8.199098E0,1.51056385E1,-5.782445E-2,1.1764199E-1,-1.441427E-1,9.549982E-3],"split_indices":[1,3,0,3,2,0,0,0,0],"split_type":[0,0,0,0,0,0,0,0,0],"sum_hessian":[7.028903E0,5.027024E0,2.0018795E0,2.1821272E0,2.8448963E0,1.0393564E0,1.1427709E0,1.7927498E0,1.0521466E0],"tree_param":{"num_deleted":"0","num_feature":"370","num_nodes":"9","size_leaf_vector":"1"}},{"base_weights":[1.4722102E-2,-8.5377276E-2,1.5721135E-1,-4.8154335E-2,2.9018876E-1,4.0100276E-1,-3.0837995E-3,1.7025094E-1,6.5384074E-3],"categories":[],"categories_nodes":[],"categories_segments":[],"categories_sizes":[],"default_left":[0,0,0,0,0,0,0,0,0],"id":21,"left_children":[1,-1,3,-1,5,7,-1,-1,-1],"loss_changes":[3.7473217E-1,0E0,2.9526946E-1,0E0,1.5414032E-1,1.9703668E-1,0E0,0E0,0E0],"parents":[2147483647,0,0,2,2,4,4,5,5],"right_children":[2,-1,4,-1,6,8,-1,-1,-1],"split_conditions":[5.8295204E1,-8.5377276E-2,-7.30839E0,-4.8154335E-2,2.4731098E1,-7.6682262E0,-3.0837995E-3,1.7025094E-1,6.5384074E-3],"split_indices":[1,0,5,0,3,8,0,0,0],"split_type":[0,0,0,0,0,0,0,0,0],"sum_hessian":[6.737395E0,1.8512912E0,4.8861036E0,1.380519E0,3.5055845E0,2.3166134E0,1.188971E0,1.2647476E0,1.0518657E0],"tree_param":{"num_deleted":"0","num_feature":"370","num_nodes":"9","size_leaf_vector":"1"}},{"base_weights":[1.770482E-2,2.7659187E-1,-1.4905058E-1,-9.019255E-3,1.434148E-1,-3.658341E-1,4.3404486E-2,-1.4202163E-1,-1.8283857E-2],"categories":[],"categories_nodes":[],"categories_segments":[],"categories_sizes":[],"default_left":[0,0,0,0,0,0,0,0,0],"id":22,"left_children":[1,3,5,-1,-1,7,-1,-1,-1],"loss_changes":[3.6439443E-1,2.171847E-1,3.8423005E-1,0E0,0E0,7.862273E-2,0E0,0E0,0E0],"parents":[2147483647,0,0,1,1,2,2,5,5],"right_children":[2,4,6,-1,-1,8,-1,-1,-1],"split_conditions":[-8.537285E0,-5.927808E0,-5.4173717E0,-9.019255E-3,1.434148E-1,-3.87372E2,4.3404486E-2,-1.4202163E-1,-1.8283857E-2],"split_indices":[7,5,9,0,0,0,0,0,0],"split_type":[0,0,0,0,0,0,0,0,0],"sum_hessian":[6.485805E0,2.2829173E0,4.2028875E0,1.2424467E0,1.0404706E0,2.2769556E0,1.925932E0,1.2745469E0,1.0024086E0],"tree_param":{"num_deleted":"0","num_feature":"370","num_nodes":"9","size_leaf_vector":"1"}},{"base_weights":[1.5114463E-2,-2.400289E-1,1.5831544E-1,-9.699522E-3,-9.8374605E-2,-6.721415E-2,1.3196193E-1,-1.00895524E-1,6.0043164E-2],"categories":[],"categories_nodes":[],"categories_segments":[],"categories_sizes":[],"default_left":[0,0,0,0,0,0,0,0,0],"id":23,"left_children":[1,3,5,-1,-1,7,-1,-1,-1],"loss_changes":[3.0385092E-1,4.439971E-2,3.6376852E-1,0E0,0E0,3.3997354E-1,0E0,0E0,0E0],"parents":[2147483647,0,0,1,1,2,2,5,5],"right_children":[2,4,6,-1,-1,8,-1,-1,-1],"split_conditions":[5.941889E1,9.855268E0,-9.116722E0,-9.699522E-3,-9.8374605E-2,-7.001661E0,1.3196193E-1,-1.00895524E-1,6.0043164E-2],"split_indices":[1,3,10,0,0,7,0,0,0],"split_type":[0,0,0,0,0,0,0,0,0],"sum_hessian":[6.276247E0,2.0131748E0,4.2630725E0,1.0052958E0,1.007879E0,2.789745E0,1.4733274E0,1.2617856E0,1.5279593E0],"tree_param":{"num_deleted":"0","num_feature":"370","num_nodes":"9","size_leaf_vector":"1"}},{"base_weights":[9.22226E-3,2.404759E-1,-1.3731039E-1,1.1913357E-1,-1.2689571E-2,8.8396676E-2,-1.14500806E-1,-6.713895E-2,1.11588515E-1],"categories":[],"categories_nodes":[],"categories_segments":[],"categories_sizes":[],"default_left":[0,0,0,0,0,0,0,0,0],"id":24,"left_children":[1,3,5,-1,-1,7,-1,-1,-1],"loss_changes":[2.7133313E-1,1.5371768E-1,3.0627874E-1,0E0,0E0,3.8252962E-1,0E0,0E0,0E0],"parents":[2147483647,0,0,1,1,2,2,5,5],"right_children":[2,4,6,-1,-1,8,-1,-1,-1],"split_conditions":[-8.537285E0,1.1704809E1,-8.654571E0,1.1913357E-1,-1.2689571E-2,-5.590395E0,-1.14500806E-1,-6.713895E-2,1.11588515E-1],"split_indices":[7,3,8,0,0,9,0,0,0],"split_type":[0,0,0,0,0,0,0,0,0],"sum_hessian":[6.0327516E0,2.0912666E0,3.941485E0,1.0855894E0,1.0056772E0,2.3807282E0,1.5607567E0,1.2334868E0,1.1472415E0],"tree_param":{"num_deleted":"0","num_feature":"370","num_nodes":"9","size_leaf_vector":"1"}},{"base_weights":[1.2483444E-2,-7.423077E-2,1.3740098E-1,2.5093192E-1,-5.1373173E-2,1.3509306E-1,-4.9844705E-3],"categories":[],"categories_nodes":[],"categories_segments":[],"categories_sizes":[],"default_left":[0,0,0,0,0,0,0],"id":25,"left_children":[1,-1,3,5,-1,-1,-1],"loss_changes":[2.5465012E-1,0E0,2.2633582E-1,2.3319271E-1,0E0,0E0,0E0],"parents":[2147483647,0,0,2,2,3,3],"right_children":[2,-1,4,6,-1,-1,-1],"split_conditions":[5.8295204E1,-7.423077E-2,4.824266E0,-2.767806E0,-5.1373173E-2,1.3509306E-1,-4.9844705E-3],"split_indices":[1,0,4,11,0,0,0],"split_type":[0,0,0,0,0,0,0],"sum_hessian":[5.795889E0,1.5629735E0,4.2329154E0,3.2313094E0,1.0016061E0,1.4601123E0,1.771197E0],"tree_param":{"num_deleted":"0","num_feature":"370","num_nodes":"7","size_leaf_vector":"1"}},{"base_weights":[1.0678489E-2,-9.779029E-2,8.7571174E-2,5.274172E-2,-2.3933627E-1,-9.915001E-2,-1.790854E-3],"categories":[],"categories_nodes":[],"categories_segments":[],"categories_sizes":[],"default_left":[0,0,0,0,0,0,0],"id":26,"left_children":[1,3,-1,-1,5,-1,-1],"loss_changes":[2.3031695E-1,2.5594324E-1,0E0,0E0,8.446655E-2,0E0,0E0],"parents":[2147483647,0,0,1,1,4,4],"right_children":[2,4,-1,-1,6,-1,-1],"split_conditions":[7.89781E1,-8.537285E0,8.7571174E-2,5.274172E-2,-2.7513309E0,-9.915001E-2,-1.790854E-3],"split_indices":[1,7,0,0,5,0,0],"split_type":[0,0,0,0,0,0,0],"sum_hessian":[5.6145554E0,4.5224967E0,1.0920583E0,1.4594561E0,3.063041E0,1.9032993E0,1.1597415E0],"tree_param":{"num_deleted":"0","num_feature":"370","num_nodes":"7","size_leaf_vector":"1"}},{"base_weights":[1.3614512E-2,1.5559807E-1,-1.7560472E-1,1.1300502E-1,-5.284741E-2,-1.1263375E-1,2.7641155E-2],"categories":[],"categories_nodes":[],"categories_segments":[],"categories_sizes":[],"default_left":[0,0,0,0,0,0,0],"id":27,"left_children":[1,3,5,-1,-1,-1,-1],"loss_changes":[2.0167626E-1,3.7718543E-1,2.085867E-1,0E0,0E0,0E0,0E0],"parents":[2147483647,0,0,1,1,2,2],"right_children":[2,4,6,-1,-1,-1,-1],"split_conditions":[-1.9459342E0,-5.6891766E0,1.4526367E-2,1.1300502E-1,-5.284741E-2,-1.1263375E-1,2.7641155E-2],"split_indices":[11,10,11,0,0,0,0],"split_type":[0,0,0,0,0,0,0],"sum_hessian":[5.489703E0,3.2378309E0,2.2518725E0,1.8617325E0,1.3760984E0,1.0590991E0,1.1927735E0],"tree_param":{"num_deleted":"0","num_feature":"370","num_nodes":"7","size_leaf_vector":"1"}},{"base_weights":[6.1768256E-3,-6.0602874E-2,1.2290307E-1,-4.0443778E-2,9.380345E-2],"categories":[],"categories_nodes":[],"categories_segments":[],"categories_sizes":[],"default_left":[0,0,0,0,0],"id":28,"left_children":[1,-1,3,-1,-1],"loss_changes":[1.7854387E-1,0E0,2.7078867E-1,0E0,0E0],"parents":[2147483647,0,0,2,2],"right_children":[2,-1,4,-1,-1],"split_conditions":[-6.444291E0,-6.0602874E-2,6.1846832E1,-4.0443778E-2,9.380345E-2],"split_indices":[5,0,1,0,0],"split_type":[0,0,0,0,0],"sum_hessian":[5.32556E0,1.6507493E0,3.674811E0,1.6812638E0,1.9935471E0],"tree_param":{"num_deleted":"0","num_feature":"370","num_nodes":"5","size_leaf_vector":"1"}},{"base_weights":[3.7239585E-3,1.362436E-1,-1.6842192E-1,9.8451704E-2,-4.744587E-2,-9.636617E-2,1.712961E-2],"categories":[],"categories_nodes":[],"categories_segments":[],"categories_sizes":[],"default_left":[0,0,0,0,0,0,0],"id":29,"left_children":[1,3,5,-1,-1,-1,-1],"loss_changes":[1.646862E-1,2.8149998E-1,1.2687853E-1,0E0,0E0,0E0,0E0],"parents":[2147483647,0,0,1,1,2,2],"right_children":[2,4,6,-1,-1,-1,-1],"split_conditions":[-1.9459342E0,-7.00162E0,1.904331E-2,9.8451704E-2,-4.744587E-2,-9.636617E-2,1.712961E-2],"split_indices":[11,12,11,0,0,0,0],"split_type":[0,0,0,0,0,0,0],"sum_hessian":[5.2131944E0,3.063465E0,2.1497293E0,1.7850145E0,1.2784506E0,1.0285184E0,1.1212107E0],"tree_param":{"num_deleted":"0","num_feature":"370","num_nodes":"7","size_leaf_vector":"1"}},{"base_weights":[-1.7373041E-3,1.6771035E-1,-1.3356705E-1,9.371276E-2,-1.9101094E-2,1.395163E-2,-9.7202696E-2],"categories":[],"categories_nodes":[],"categories_segments":[],"categories_sizes":[],"default_left":[0,0,0,0,0,0,0],"id":30,"left_children":[1,3,5,-1,-1,-1,-1],"loss_changes":[1.5844549E-1,1.23930305E-1,1.5162407E-1,0E0,0E0,0E0,0E0],"parents":[2147483647,0,0,1,1,2,2],"right_children":[2,4,6,-1,-1,-1,-1],"split_conditions":[-8.016301E0,1.2373895E1,-9.175069E0,9.371276E-2,-1.9101094E-2,1.395163E-2,-9.7202696E-2],"split_indices":[7,3,8,0,0,0,0],"split_type":[0,0,0,0,0,0,0],"sum_hessian":[5.0902247E0,2.1082313E0,2.9819937E0,1.0818053E0,1.026426E0,1.9212021E0,1.0607915E0],"tree_param":{"num_deleted":"0","num_feature":"370","num_nodes":"7","size_leaf_vector":"1"}},{"base_weights":[-2.7288E-3,-1.0845095E-1,6.170483E-2,3.332582E-2,-7.557776E-2],"categories":[],"categories_nodes":[],"categories_segments":[],"categories_sizes":[],"default_left":[0,0,0,0,0],"id":31,"left_children":[1,3,-1,-1,-1],"loss_changes":[1.5434037E-1,1.7383346E-1,0E0,0E0,0E0],"parents":[2147483647,0,0,1,1],"right_children":[2,4,-1,-1,-1],"split_conditions":[7.4167305E1,1.4321523E1,6.170483E-2,3.332582E-2,-7.557776E-2],"split_indices":[1,3,0,0,0],"split_type":[0,0,0,0,0],"sum_hessian":[4.992356E0,3.6303816E0,1.3619741E0,1.5240752E0,2.1063063E0],"tree_param":{"num_deleted":"0","num_feature":"370","num_nodes":"5","size_leaf_vector":"1"}},{"base_weights":[1.2874418E-3,-9.083215E-2,6.611076E-2,-2.1466911E-1,4.416517E-2,-1.0827423E-1,4.3834634E-3],"categories":[],"categories_nodes":[],"categories_segments":[],"categories_sizes":[],"default_left":[0,0,0,0,0,0,0],"id":32,"left_children":[1,3,-1,5,-1,-1,-1],"loss_changes":[1.3943522E-1,1.7527732E-1,0E0,1.2641327E-1,0E0,0E0,0E0],"parents":[2147483647,0,0,1,1,3,3],"right_children":[2,4,-1,6,-1,-1,-1],"split_conditions":[1.5152871E1,7.4167305E1,6.611076E-2,-3.8325849E0,4.416517E-2,-1.0827423E-1,4.3834634E-3],"split_indices":[2,1,0,6,0,0,0],"split_type":[0,0,0,0,0,0,0],"sum_hessian":[4.917167E0,3.8737338E0,1.0434333E0,2.6127546E0,1.2609792E0,1.2447104E0,1.3680441E0],"tree_param":{"num_deleted":"0","num_feature":"370","num_nodes":"7","size_leaf_vector":"1"}},{"base_weights":[1.5885541E-3,9.754698E-2,-6.747172E-2,-8.936155E-2,1.0580752E-1,-7.570599E-2,4.2768456E-2],"categories":[],"categories_nodes":[],"categories_segments":[],"categories_sizes":[],"default_left":[0,0,0,0,0,0,0],"id":33,"left_children":[1,3,-1,5,-1,-1,-1],"loss_changes":[1.4801493E-1,2.5909105E-1,0E0,1.702544E-1,0E0,0E0,0E0],"parents":[2147483647,0,0,1,1,3,3],"right_children":[2,4,-1,6,-1,-1,-1],"split_conditions":[4.824266E0,1.0809134E1,-6.747172E-2,-6.4208107E0,1.0580752E-1,-7.570599E-2,4.2768456E-2],"split_indices":[4,2,0,9,0,0,0],"split_type":[0,0,0,0,0,0,0],"sum_hessian":[4.800859E0,3.7720704E0,1.0287883E0,2.5521972E0,1.2198733E0,1.4471049E0,1.1050922E0],"tree_param":{"num_deleted":"0","num_feature":"370","num_nodes":"7","size_leaf_vector":"1"}},{"base_weights":[2.4811316E-3,5.1647794E-2,-1.03263065E-1,2.2214074E-2,-8.889026E-2],"categories":[],"categories_nodes":[],"categories_segments":[],"categories_sizes":[],"default_left":[0,0,0,0,0],"id":34,"left_children":[1,-1,3,-1,-1],"loss_changes":[1.1966556E-1,0E0,1.630757E-1,0E0,0E0],"parents":[2147483647,0,0,2,2],"right_children":[2,-1,4,-1,-1],"split_conditions":[-8.537285E0,5.1647794E-2,-8.654571E0,2.2214074E-2,-8.889026E-2],"split_indices":[7,0,8,0,0],"split_type":[0,0,0,0,0],"sum_hessian":[4.6785827E0,1.5551311E0,3.1234517E0,1.9493438E0,1.174108E0],"tree_param":{"num_deleted":"0","num_feature":"370","num_nodes":"5","size_leaf_vector":"1"}},{"base_weights":[-1.1754702E-3,-5.9911802E-2,9.703135E-2,-3.744292E-2,7.68167E-2],"categories":[],"categories_nodes":[],"categories_segments":[],"categories_sizes":[],"default_left":[0,0,0,0,0],"id":35,"left_children":[1,-1,3,-1,-1],"loss_changes":[1.2872806E-1,0E0,1.8807736E-1,0E0,0E0],"parents":[2147483647,0,0,2,2],"right_children":[2,-1,4,-1,-1],"split_conditions":[-6.9548135E0,-5.9911802E-2,6.1846832E1,-3.744292E-2,7.68167E-2],"split_indices":[5,0,1,0,0],"split_type":[0,0,0,0,0],"sum_hessian":[4.6085563E0,1.1831759E0,3.4253802E0,1.5200471E0,1.9053332E0],"tree_param":{"num_deleted":"0","num_feature":"370","num_nodes":"5","size_leaf_vector":"1"}},{"base_weights":[-4.2836666E-3,1.2002287E-1,-5.2367527E-2,-2.1214938E-2,8.109068E-2],"categories":[],"categories_nodes":[],"categories_segments":[],"categories_sizes":[],"default_left":[0,0,0,0,0],"id":36,"left_children":[1,3,-1,-1,-1],"loss_changes":[1.3792016E-1,1.2766147E-1,0E0,0E0,0E0],"parents":[2147483647,0,0,1,1],"right_children":[2,4,-1,-1,-1],"split_conditions":[2.1005259E1,7.610295E0,-5.2367527E-2,-2.1214938E-2,8.109068E-2],"split_indices":[3,2,0,0,0],"split_type":[0,0,0,0,0],"sum_hessian":[4.5262065E0,2.7868385E0,1.7393676E0,1.4614077E0,1.325431E0],"tree_param":{"num_deleted":"0","num_feature":"370","num_nodes":"5","size_leaf_vector":"1"}},{"base_weights":[-1.429746E-3,-5.4896552E-2,9.009106E-2,-5.2108325E-2,8.165397E-2,-6.549422E-2,4.506511E-2],"categories":[],"categories_nodes":[],"categories_segments":[],"categories_sizes":[],"default_left":[0,0,0,0,0,0,0],"id":37,"left_children":[1,-1,3,5,-1,-1,-1],"loss_changes":[1.0741914E-1,0E0,1.2574324E-1,1.4237235E-1,0E0,0E0,0E0],"parents":[2147483647,0,0,2,2,3,3],"right_children":[2,-1,4,6,-1,-1,-1],"split_conditions":[5.8295204E1,-5.4896552E-2,-9.116722E0,-6.197338E0,8.165397E-2,-6.549422E-2,4.506511E-2],"split_indices":[1,0,10,9,0,0,0],"split_type":[0,0,0,0,0,0,0],"sum_hessian":[4.4725146E0,1.1639848E0,3.3085299E0,2.2585673E0,1.0499625E0,1.1965796E0,1.0619878E0],"tree_param":{"num_deleted":"0","num_feature":"370","num_nodes":"7","size_leaf_vector":"1"}},{"base_weights":[3.1362538E-4,4.2325906E-2,-1.1051923E-1,-7.225583E-2,2.6732279E-2],"categories":[],"categories_nodes":[],"categories_segments":[],"categories_sizes":[],"default_left":[0,0,0,0,0],"id":38,"left_children":[1,-1,3,-1,-1],"loss_changes":[9.951739E-2,0E0,1.14353806E-1,0E0,0E0],"parents":[2147483647,0,0,2,2],"right_children":[2,-1,4,-1,-1],"split_conditions":[-8.016301E0,4.2325906E-2,-5.4173717E0,-7.225583E-2,2.6732279E-2],"split_indices":[7,0,9,0,0],"split_type":[0,0,0,0,0],"sum_hessian":[4.3790107E0,1.8087227E0,2.570288E0,1.4300885E0,1.1401994E0],"tree_param":{"num_deleted":"0","num_feature":"370","num_nodes":"5","size_leaf_vector":"1"}},{"base_weights":[-5.001278E-4,-1.0357114E-1,4.4751115E-2,-7.1095474E-2,3.7535362E-2],"categories":[],"categories_nodes":[],"categories_segments":[],"categories_sizes":[],"default_left":[0,0,0,0,0],"id":39,"left_children":[1,3,-1,-1,-1],"loss_changes":[9.7727284E-2,1.4402232E-1,0E0,0E0,0E0],"parents":[2147483647,0,0,1,1],"right_children":[2,4,-1,-1,-1],"split_conditions":[6.99299E1,-3.7324924E0,4.4751115E-2,-7.1095474E-2,3.7535362E-2],"split_indices":[1,6,0,0,0],"split_type":[0,0,0,0,0],"sum_hessian":[4.3334537E0,2.748617E0,1.5848368E0,1.7130015E0,1.0356153E0],"tree_param":{"num_deleted":"0","num_feature":"370","num_nodes":"5","size_leaf_vector":"1"}},{"base_weights":[1.6308468E-3,1.1806273E-1,-4.249906E-2,8.3000556E-2,-3.4786403E-2],"categories":[],"categories_nodes":[],"categories_segments":[],"categories_sizes":[],"default_left":[0,0,0,0,0],"id":40,"left_children":[1,3,-1,-1,-1],"loss_changes":[1.04673356E-1,1.6027153E-1,0E0,0E0,0E0],"parents":[2147483647,0,0,1,1],"right_children":[2,4,-1,-1,-1],"split_conditions":[-1.9459342E0,-5.7329736E0,-4.249906E-2,8.3000556E-2,-3.4786403E-2],"split_indices":[11,10,0,0,0],"split_type":[0,0,0,0,0],"sum_hessian":[4.2713976E0,2.4537332E0,1.8176645E0,1.3538811E0,1.099852E0],"tree_param":{"num_deleted":"0","num_feature":"370","num_nodes":"5","size_leaf_vector":"1"}},{"base_weights":[2.5505947E-3,9.1206856E-2,-4.9952038E-2,-2.7506351E-2,6.926056E-2],"categories":[],"categories_nodes":[],"categories_segments":[],"categories_sizes":[],"default_left":[0,0,0,0,0],"id":41,"left_children":[1,3,-1,-1,-1],"loss_changes":[9.32916E-2,1.2499058E-1,0E0,0E0,0E0],"parents":[2147483647,0,0,1,1],"right_children":[2,4,-1,-1,-1],"split_conditions":[2.4731098E1,-5.743781E0,-4.9952038E-2,-2.7506351E-2,6.926056E-2],"split_indices":[3,5,0,0,0],"split_type":[0,0,0,0,0],"sum_hessian":[4.2111735E0,3.064566E0,1.1466074E0,1.4756373E0,1.5889286E0],"tree_param":{"num_deleted":"0","num_feature":"370","num_nodes":"5","size_leaf_vector":"1"}},{"base_weights":[3.548978E-4,-9.9054866E-2,4.25122E-2,2.367693E-2,-6.800081E-2],"categories":[],"categories_nodes":[],"categories_segments":[],"categories_sizes":[],"default_left":[0,0,0,0,0],"id":42,"left_children":[1,3,-1,-1,-1],"loss_changes":[8.666279E-2,1.00176886E-1,0E0,0E0,0E0],"parents":[2147483647,0,0,1,1],"right_children":[2,4,-1,-1,-1],"split_conditions":[6.99299E1,1.4321523E1,4.25122E-2,2.367693E-2,-6.800081E-2],"split_indices":[1,3,0,0,0],"split_type":[0,0,0,0,0],"sum_hessian":[4.1684427E0,2.622991E0,1.5454516E0,1.2546874E0,1.3683037E0],"tree_param":{"num_deleted":"0","num_feature":"370","num_nodes":"5","size_leaf_vector":"1"}},{"base_weights":[-2.1028369E-4,-4.8735034E-2,8.125151E-2,6.7766E-2,-4.1004285E-2],"categories":[],"categories_nodes":[],"categories_segments":[],"categories_sizes":[],"default_left":[0,0,0,0,0],"id":43,"left_children":[1,-1,3,-1,-1],"loss_changes":[8.0875695E-2,0E0,1.5933941E-1,0E0,0E0],"parents":[2147483647,0,0,2,2],"right_children":[2,-1,4,-1,-1],"split_conditions":[5.8295204E1,-4.8735034E-2,-8.763699E0,6.7766E-2,-4.1004285E-2],"split_indices":[1,0,8,0,0],"split_type":[0,0,0,0,0],"sum_hessian":[4.1206565E0,1.0450803E0,3.0755763E0,1.8267314E0,1.2488447E0],"tree_param":{"num_deleted":"0","num_feature":"370","num_nodes":"5","size_leaf_vector":"1"}},{"base_weights":[-4.328417E-3,4.044241E-2,-1.10837184E-1,1.6691593E-2,-7.137106E-2],"categories":[],"categories_nodes":[],"categories_segments":[],"categories_sizes":[],"default_left":[0,0,0,0,0],"id":44,"left_children":[1,-1,3,-1,-1],"loss_changes":[8.9898236E-2,0E0,8.5448936E-2,0E0,0E0],"parents":[2147483647,0,0,2,2],"right_children":[2,-1,4,-1,-1],"split_conditions":[-8.016301E0,4.044241E-2,-1.0456503E1,1.6691593E-2,-7.137106E-2],"split_indices":[7,0,10,0,0],"split_type":[0,0,0,0,0],"sum_hessian":[4.0580487E0,1.6443166E0,2.4137323E0,1.2881688E0,1.1255634E0],"tree_param":{"num_deleted":"0","num_feature":"370","num_nodes":"5","size_leaf_vector":"1"}},{"base_weights":[-6.0323095E-3,7.872764E-2,-4.862256E-2,5.6783367E-2,-3.482169E-2],"categories":[],"categories_nodes":[],"categories_segments":[],"categories_sizes":[],"default_left":[0,0,0,0,0],"id":45,"left_children":[1,3,-1,-1,-1],"loss_changes":[7.910765E-2,1.0646847E-1,0E0,0E0,0E0],"parents":[2147483647,0,0,1,1],"right_children":[2,4,-1,-1,-1],"split_conditions":[2.4731098E1,-5.6891766E0,-4.862256E-2,5.6783367E-2,-3.482169E-2],"split_indices":[3,10,0,0,0],"split_type":[0,0,0,0,0],"sum_hessian":[4.016401E0,2.9237447E0,1.092656E0,1.8833042E0,1.0404403E0],"tree_param":{"num_deleted":"0","num_feature":"370","num_nodes":"5","size_leaf_vector":"1"}},{"base_weights":[-9.536631E-3,1.0002897E-1,-4.1609183E-2,-2.9463748E-2,7.001006E-2],"categories":[],"categories_nodes":[],"categories_segments":[],"categories_sizes":[],"default_left":[0,0,0,0,0],"id":46,"left_children":[1,3,-1,-1,-1],"loss_changes":[8.421743E-2,1.09365255E-1,0E0,0E0,0E0],"parents":[2147483647,0,0,1,1],"right_children":[2,4,-1,-1,-1],"split_conditions":[-1.9459342E0,-5.8043194E0,-4.1609183E-2,-2.9463748E-2,7.001006E-2],"split_indices":[11,5,0,0,0],"split_type":[0,0,0,0,0],"sum_hessian":[3.9707358E0,2.2703595E0,1.7003762E0,1.0189124E0,1.2514471E0],"tree_param":{"num_deleted":"0","num_feature":"370","num_nodes":"5","size_leaf_vector":"1"}},{"base_weights":[-6.7962743E-3,7.3264994E-2,-4.577416E-2,6.820269E-2,-2.670711E-2],"categories":[],"categories_nodes":[],"categories_segments":[],"categories_sizes":[],"default_left":[0,0,0,0,0],"id":47,"left_children":[1,3,-1,-1,-1],"loss_changes":[6.876404E-2,1.1676715E-1,0E0,0E0,0E0],"parents":[2147483647,0,0,1,1],"right_children":[2,4,-1,-1,-1],"split_conditions":[-7.00162E0,-1.9459342E0,-4.577416E-2,6.820269E-2,-2.670711E-2],"split_indices":[12,11,0,0,0],"split_type":[0,0,0,0,0],"sum_hessian":[3.933759E0,2.8603594E0,1.0733995E0,1.2616731E0,1.5986865E0],"tree_param":{"num_deleted":"0","num_feature":"370","num_nodes":"5","size_leaf_vector":"1"}},{"base_weights":[-5.5244355E-3,-4.8615947E-2,7.695265E-2,-3.8225845E-2,6.0030065E-2],"categories":[],"categories_nodes":[],"categories_segments":[],"categories_sizes":[],"default_left":[0,0,0,0,0],"id":48,"left_children":[1,-1,3,-1,-1],"loss_changes":[7.557046E-2,0E0,1.2312423E-1,0E0,0E0],"parents":[2147483647,0,0,2,2],"right_children":[2,-1,4,-1,-1],"split_conditions":[-6.9548135E0,-4.8615947E-2,6.6862154E0,-3.8225845E-2,6.0030065E-2],"split_indices":[5,0,2,0,0],"split_type":[0,0,0,0,0],"sum_hessian":[3.8876746E0,1.0086282E0,2.8790462E0,1.0694797E0,1.8095666E0],"tree_param":{"num_deleted":"0","num_feature":"370","num_nodes":"5","size_leaf_vector":"1"}},{"base_weights":[-9.338104E-3,3.285934E-2,-1.17492996E-1,-5.0835744E-2,-2.039177E-3],"categories":[],"categories_nodes":[],"categories_segments":[],"categories_sizes":[],"default_left":[0,0,0,0,0],"id":49,"left_children":[1,-1,3,-1,-1],"loss_changes":[7.509804E-2,0E0,1.6200218E-2,0E0,0E0],"parents":[2147483647,0,0,2,2],"right_children":[2,-1,4,-1,-1],"split_conditions":[-1.0384267E-1,3.285934E-2,-6.090798E0,-5.0835744E-2,-2.039177E-3],"split_indices":[4,0,7,0,0],"split_type":[0,0,0,0,0],"sum_hessian":[3.8403463E0,1.8234891E0,2.0168571E0,1.0113463E0,1.0055108E0],"tree_param":{"num_deleted":"0","num_feature":"370","num_nodes":"5","size_leaf_vector":"1"}},{"base_weights":[-1.0736181E-2,-4.3820783E-2,7.399911E-2,7.1738295E-2,-2.4078622E-2],"categories":[],"categories_nodes":[],"categories_segments":[],"categories_sizes":[],"default_left":[0,0,0,0,0],"id":50,"left_children":[1,-1,3,-1,-1],"loss_changes":[6.611822E-2,0E0,1.1165388E-1,0E0,0E0],"parents":[2147483647,0,0,2,2],"right_children":[2,-1,4,-1,-1],"split_conditions":[5.941889E1,-4.3820783E-2,-2.3362513E0,7.1738295E-2,-2.4078622E-2],"split_indices":[1,0,11,0,0],"split_type":[0,0,0,0,0],"sum_hessian":[3.8231332E0,1.1933577E0,2.6297753E0,1.0044336E0,1.6253418E0],"tree_param":{"num_deleted":"0","num_feature":"370","num_nodes":"5","size_leaf_vector":"1"}},{"base_weights":[-6.618406E-3,8.339425E-2,-3.750905E-2,6.2380172E-2,-2.1086631E-2],"categories":[],"categories_nodes":[],"categories_segments":[],"categories_sizes":[],"default_left":[0,0,0,0,0],"id":51,"left_children":[1,3,-1,-1,-1],"loss_changes":[6.133161E-2,7.802957E-2,0E0,0E0,0E0],"parents":[2147483647,0,0,1,1],"right_children":[2,4,-1,-1,-1],"split_conditions":[2.1005259E1,-7.6682262E0,-3.750905E-2,6.2380172E-2,-2.1086631E-2],"split_indices":[3,8,0,0,0],"split_type":[0,0,0,0,0],"sum_hessian":[3.7759578E0,2.3132381E0,1.4627198E0,1.082782E0,1.2304561E0],"tree_param":{"num_deleted":"0","num_feature":"370","num_nodes":"5","size_leaf_vector":"1"}},{"base_weights":[-3.7374543E-3,-4.1942116E-2,7.4323215E-2,5.3685423E-2,-1.8571494E-2],"categories":[],"categories_nodes":[],"categories_segments":[],"categories_sizes":[],"default_left":[0,0,0,0,0],"id":52,"left_children":[1,-1,3,-1,-1],"loss_changes":[6.0751893E-2,0E0,6.3327774E-2,0E0,0E0],"parents":[2147483647,0,0,2,2],"right_children":[2,-1,4,-1,-1],"split_conditions":[-7.950651E0,-4.1942116E-2,-8.390546E0,5.3685423E-2,-1.8571494E-2],"split_indices":[9,0,8,0,0],"split_type":[0,0,0,0,0],"sum_hessian":[3.7413375E0,1.0755366E0,2.6658008E0,1.3303946E0,1.3354062E0],"tree_param":{"num_deleted":"0","num_feature":"370","num_nodes":"5","size_leaf_vector":"1"}},{"base_weights":[-4.000337E-3,3.334464E-2,-9.157991E-2,-6.1341867E-2,2.3029327E-2],"categories":[],"categories_nodes":[],"categories_segments":[],"categories_sizes":[],"default_left":[0,0,0,0,0],"id":53,"left_children":[1,-1,3,-1,-1],"loss_changes":[5.7704292E-2,0E0,7.698716E-2,0E0,0E0],"parents":[2147483647,0,0,2,2],"right_children":[2,-1,4,-1,-1],"split_conditions":[-8.016301E0,3.334464E-2,-3.8851368E0,-6.1341867E-2,2.3029327E-2],"split_indices":[7,0,7,0,0],"split_type":[0,0,0,0,0],"sum_hessian":[3.7126083E0,1.4876008E0,2.2250073E0,1.2033923E0,1.021615E0],"tree_param":{"num_deleted":"0","num_feature":"370","num_nodes":"5","size_leaf_vector":"1"}},{"base_weights":[-3.9735804E-3,7.176257E-2,-4.1384682E-2,6.382583E-2,-2.3227692E-2],"categories":[],"categories_nodes":[],"categories_segments":[],"categories_sizes":[],"default_left":[0,0,0,0,0],"id":54,"left_children":[1,3,-1,-1,-1],"loss_changes":[5.7404373E-2,9.32211E-2,0E0,0E0,0E0],"parents":[2147483647,0,0,1,1],"right_children":[2,4,-1,-1,-1],"split_conditions":[-7.00162E0,-1.9459342E0,-4.1384682E-2,6.382583E-2,-2.3227692E-2],"split_indices":[12,11,0,0,0],"split_type":[0,0,0,0,0],"sum_hessian":[3.6817632E0,2.6487737E0,1.0329895E0,1.1427494E0,1.5060241E0],"tree_param":{"num_deleted":"0","num_feature":"370","num_nodes":"5","size_leaf_vector":"1"}},{"base_weights":[-2.8475092E-3,7.113108E-2,-4.0502828E-2,5.608912E-2,-3.447299E-2],"categories":[],"categories_nodes":[],"categories_segments":[],"categories_sizes":[],"default_left":[0,0,0,0,0],"id":55,"left_children":[1,3,-1,-1,-1],"loss_changes":[5.5006076E-2,9.9755876E-2,0E0,0E0,0E0],"parents":[2147483647,0,0,1,1],"right_children":[2,4,-1,-1,-1],"split_conditions":[2.4731098E1,-2.1305838E0,-4.0502828E-2,5.608912E-2,-3.447299E-2],"split_indices":[3,6,0,0,0],"split_type":[0,0,0,0,0],"sum_hessian":[3.6437554E0,2.6321685E0,1.011587E0,1.6191165E0,1.013052E0],"tree_param":{"num_deleted":"0","num_feature":"370","num_nodes":"5","size_leaf_vector":"1"}},{"base_weights":[-6.0262E-3,-4.3011386E-2,8.070474E-2,-1.8896814E-2,5.813922E-2],"categories":[],"categories_nodes":[],"categories_segments":[],"categories_sizes":[],"default_left":[0,0,0,0,0],"id":56,"left_children":[1,-1,3,-1,-1],"loss_changes":[6.653109E-2,0E0,6.856213E-2,0E0,0E0],"parents":[2147483647,0,0,2,2],"right_children":[2,-1,4,-1,-1],"split_conditions":[5.941889E1,-4.3011386E-2,-7.001661E0,-1.8896814E-2,5.813922E-2],"split_indices":[1,0,7,0,0],"split_type":[0,0,0,0,0],"sum_hessian":[3.613838E0,1.1460005E0,2.4678373E0,1.2819879E0,1.1858494E0],"tree_param":{"num_deleted":"0","num_feature":"370","num_nodes":"5","size_leaf_vector":"1"}},{"base_weights":[-5.0000357E-3,-8.771085E-2,3.3584632E-2,2.1431083E-2,-6.038415E-2],"categories":[],"categories_nodes":[],"categories_segments":[],"categories_sizes":[],"default_left":[0,0,0,0,0],"id":57,"left_children":[1,3,-1,-1,-1],"loss_changes":[5.409867E-2,7.297647E-2,0E0,0E0,0E0],"parents":[2147483647,0,0,1,1],"right_children":[2,4,-1,-1,-1],"split_conditions":[6.99299E1,1.4321523E1,3.3584632E-2,2.1431083E-2,-6.038415E-2],"split_indices":[1,3,0,0,0],"split_type":[0,0,0,0,0],"sum_hessian":[3.5776765E0,2.2420306E0,1.335646E0,1.0881567E0,1.1538739E0],"tree_param":{"num_deleted":"0","num_feature":"370","num_nodes":"5","size_leaf_vector":"1"}},{"base_weights":[-4.8061158E-3,-3.672126E-2,6.91602E-2,5.055164E-2,-1.7431652E-2],"categories":[],"categories_nodes":[],"categories_segments":[],"categories_sizes":[],"default_left":[0,0,0,0,0],"id":58,"left_children":[1,-1,3,-1,-1],"loss_changes":[4.7989793E-2,0E0,5.31372E-2,0E0,0E0],"parents":[2147483647,0,0,2,2],"right_children":[2,-1,4,-1,-1],"split_conditions":[5.941889E1,-3.672126E-2,2.1005259E1,5.055164E-2,-1.7431652E-2],"split_indices":[1,0,3,0,0],"split_type":[0,0,0,0,0],"sum_hessian":[3.5439126E0,1.1155117E0,2.428401E0,1.1818159E0,1.2465852E0],"tree_param":{"num_deleted":"0","num_feature":"370","num_nodes":"5","size_leaf_vector":"1"}},{"base_weights":[-4.1185385E-3,-3.706416E-2,7.083805E-2,-2.1757059E-2,6.217979E-2],"categories":[],"categories_nodes":[],"categories_segments":[],"categories_sizes":[],"default_left":[0,0,0,0,0],"id":59,"left_children":[1,-1,3,-1,-1],"loss_changes":[4.9148124E-2,0E0,8.168823E-2,0E0,0E0],"parents":[2147483647,0,0,2,2],"right_children":[2,-1,4,-1,-1],"split_conditions":[-6.444291E0,-3.706416E-2,-3.8325849E0,-2.1757059E-2,6.217979E-2],"split_indices":[5,0,6,0,0],"split_type":[0,0,0,0,0],"sum_hessian":[3.5125608E0,1.1045024E0,2.4080584E0,1.402593E0,1.0054655E0],"tree_param":{"num_deleted":"0","num_feature":"370","num_nodes":"5","size_leaf_vector":"1"}},{"base_weights":[-2.0356951E-3,3.172853E-2,-8.4829055E-2,-5.675074E-2,1.9951243E-2],"categories":[],"categories_nodes":[],"categories_segments":[],"categories_sizes":[],"default_left":[0,0,0,0,0],"id":60,"left_children":[1,-1,3,-1,-1],"loss_changes":[4.8985634E-2,0E0,6.1383218E-2,0E0,0E0],"parents":[2147483647,0,0,2,2],"right_children":[2,-1,4,-1,-1],"split_conditions":[-8.016301E0,3.172853E-2,-1.2556598E0,-5.675074E-2,1.9951243E-2],"split_indices":[7,0,11,0,0],"split_type":[0,0,0,0,0],"sum_hessian":[3.4834013E0,1.392691E0,2.0907102E0,1.0895075E0,1.0012028E0],"tree_param":{"num_deleted":"0","num_feature":"370","num_nodes":"5","size_leaf_vector":"1"}},{"base_weights":[-2.6419738E-3,-3.6156487E-2,7.84123E-2,5.1354762E-2,-1.2165258E-2],"categories":[],"categories_nodes":[],"categories_segments":[],"categories_sizes":[],"default_left":[0,0,0,0,0],"id":61,"left_children":[1,-1,3,-1,-1],"loss_changes":[5.2046496E-2,0E0,4.278232E-2,0E0,0E0],"parents":[2147483647,0,0,2,2],"right_children":[2,-1,4,-1,-1],"split_conditions":[6.6862154E0,-3.6156487E-2,2.1005259E1,5.1354762E-2,-1.2165258E-2],"split_indices":[2,0,3,0,0],"split_type":[0,0,0,0,0],"sum_hessian":[3.4581563E0,1.2106081E0,2.247548E0,1.0161649E0,1.2313832E0],"tree_param":{"num_deleted":"0","num_feature":"370","num_nodes":"5","size_leaf_vector":"1"}},{"base_weights":[-1.1172647E-3,2.7435996E-2,-2.898228E-2],"categories":[],"categories_nodes":[],"categories_segments":[],"categories_sizes":[],"default_left":[0,0,0],"id":62,"left_children":[1,-1,-1],"loss_changes":[4.804179E-2,0E0,0E0],"parents":[2147483647,0,0],"right_children":[2,-1,-1],"split_conditions":[-8.787317E0,2.7435996E-2,-2.898228E-2],"split_indices":[8,0,0],"split_type":[0,0,0],"sum_hessian":[3.4353504E0,1.7658097E0,1.6695408E0],"tree_param":{"num_deleted":"0","num_feature":"370","num_nodes":"3","size_leaf_vector":"1"}},{"base_weights":[-1.130431E-3,2.5319988E-2,-3.0724041E-2],"categories":[],"categories_nodes":[],"categories_segments":[],"categories_sizes":[],"default_left":[0,0,0],"id":63,"left_children":[1,-1,-1],"loss_changes":[4.6955407E-2,0E0,0E0],"parents":[2147483647,0,0],"right_children":[2,-1,-1],"split_conditions":[-1.9459342E0,2.5319988E-2,-3.0724041E-2],"split_indices":[11,0,0],"split_type":[0,0,0],"sum_hessian":[3.422567E0,1.9459579E0,1.4766091E0],"tree_param":{"num_deleted":"0","num_feature":"370","num_nodes":"3","size_leaf_vector":"1"}},{"base_weights":[-2.0181942E-3,-3.154751E-2,7.5558946E-2,-1.4833374E-2,4.9969446E-2],"categories":[],"categories_nodes":[],"categories_segments":[],"categories_sizes":[],"default_left":[0,0,0,0,0],"id":64,"left_children":[1,-1,3,-1,-1],"loss_changes":[4.3257758E-2,0E0,4.350915E-2,0E0,0E0],"parents":[2147483647,0,0,2,2],"right_children":[2,-1,4,-1,-1],"split_conditions":[6.1846832E1,-3.154751E-2,-7.001661E0,-1.4833374E-2,4.9969446E-2],"split_indices":[1,0,7,0,0],"split_type":[0,0,0,0,0],"sum_hessian":[3.4132855E0,1.312612E0,2.1006734E0,1.0774294E0,1.023244E0],"tree_param":{"num_deleted":"0","num_feature":"370","num_nodes":"5","size_leaf_vector":"1"}},{"base_weights":[-5.414463E-4,3.0649941E-2,-8.038825E-2,-4.7088385E-2,1.0547103E-2],"categories":[],"categories_nodes":[],"categories_segments":[],"categories_sizes":[],"default_left":[0,0,0,0,0],"id":65,"left_children":[1,-1,3,-1,-1],"loss_changes":[4.420503E-2,0E0,3.231646E-2,0E0,0E0],"parents":[2147483647,0,0,2,2],"right_children":[2,-1,4,-1,-1],"split_conditions":[-8.168059E0,3.0649941E-2,-1.4169427E0,-4.7088385E-2,1.0547103E-2],"split_indices":[7,0,11,0,0],"split_type":[0,0,0,0,0],"sum_hessian":[3.3887928E0,1.3599463E0,2.0288465E0,1.0046289E0,1.0242176E0],"tree_param":{"num_deleted":"0","num_feature":"370","num_nodes":"5","size_leaf_vector":"1"}},{"base_weights":[-1.761558E-3,2.4094034E-2,-2.9603478E-2],"categories":[],"categories_nodes":[],"categories_segments":[],"categories_sizes":[],"default_left":[0,0,0],"id":66,"left_children":[1,-1,-1],"loss_changes":[4.2697493E-2,0E0,0E0],"parents":[2147483647,0,0],"right_children":[2,-1,-1],"split_conditions":[-1.9459342E0,2.4094034E-2,-2.9603478E-2],"split_indices":[11,0,0],"split_type":[0,0,0],"sum_hessian":[3.3714335E0,1.9182535E0,1.4531801E0],"tree_param":{"num_deleted":"0","num_feature":"370","num_nodes":"3","size_leaf_vector":"1"}},{"base_weights":[-2.4992025E-3,-3.0541463E-2,2.3368586E-2],"categories":[],"categories_nodes":[],"categories_segments":[],"categories_sizes":[],"default_left":[0,0,0],"id":67,"left_children":[1,-1,-1],"loss_changes":[4.276292E-2,0E0,0E0],"parents":[2147483647,0,0],"right_children":[2,-1,-1],"split_conditions":[-5.743781E0,-3.0541463E-2,2.3368586E-2],"split_indices":[5,0,0],"split_type":[0,0,0],"sum_hessian":[3.3630292E0,1.3854111E0,1.977618E0],"tree_param":{"num_deleted":"0","num_feature":"370","num_nodes":"3","size_leaf_vector":"1"}},{"base_weights":[-3.4035144E-3,-2.6853533E-2,2.7866807E-2],"categories":[],"categories_nodes":[],"categories_segments":[],"categories_sizes":[],"default_left":[0,0,0],"id":68,"left_children":[1,-1,-1],"loss_changes":[4.441829E-2,0E0,0E0],"parents":[2147483647,0,0],"right_children":[2,-1,-1],"split_conditions":[-4.006002E2,-2.6853533E-2,2.7866807E-2],"split_indices":[0,0,0],"split_type":[0,0,0],"sum_hessian":[3.354232E0,1.8079369E0,1.5462952E0],"tree_param":{"num_deleted":"0","num_feature":"370","num_nodes":"3","size_leaf_vector":"1"}},{"base_weights":[-2.1504497E-3,2.3657719E-2,-2.6704557E-2],"categories":[],"categories_nodes":[],"categories_segments":[],"categories_sizes":[],"default_left":[0,0,0],"id":69,"left_children":[1,-1,-1],"loss_changes":[3.755856E-2,0E0,0E0],"parents":[2147483647,0,0],"right_children":[2,-1,-1],"split_conditions":[6.121655E-1,2.3657719E-2,-2.6704557E-2],"split_indices":[4,0,0],"split_type":[0,0,0],"sum_hessian":[3.3398418E0,1.775854E0,1.5639879E0],"tree_param":{"num_deleted":"0","num_feature":"370","num_nodes":"3","size_leaf_vector":"1"}},{"base_weights":[-2.208756E-3,-2.4272153E-2,2.6756022E-2],"categories":[],"categories_nodes":[],"categories_segments":[],"categories_sizes":[],"default_left":[0,0,0],"id":70,"left_children":[1,-1,-1],"loss_changes":[3.8386866E-2,0E0,0E0],"parents":[2147483647,0,0],"right_children":[2,-1,-1],"split_conditions":[-6.9217124E0,-2.4272153E-2,2.6756022E-2],"split_indices":[7,0,0],"split_type":[0,0,0],"sum_hessian":[3.3337142E0,1.8529457E0,1.4807686E0],"tree_param":{"num_deleted":"0","num_feature":"370","num_nodes":"3","size_leaf_vector":"1"}},{"base_weights":[-9.685529E-4,-7.4579515E-2,2.875977E-2,1.6778711E-2,-5.0158195E-2],"categories":[],"categories_nodes":[],"categories_segments":[],"categories_sizes":[],"default_left":[0,0,0,0,0],"id":71,"left_children":[1,3,-1,-1,-1],"loss_changes":[3.7981685E-2,4.5851696E-2,0E0,0E0,0E0],"parents":[2147483647,0,0,1,1],"right_children":[2,4,-1,-1,-1],"split_conditions":[6.766753E1,1.3527586E1,2.875977E-2,1.6778711E-2,-5.0158195E-2],"split_indices":[1,3,0,0,0],"split_type":[0,0,0,0,0],"sum_hessian":[3.3254375E0,2.0198364E0,1.3056011E0,1.0028167E0,1.0170196E0],"tree_param":{"num_deleted":"0","num_feature":"370","num_nodes":"5","size_leaf_vector":"1"}},{"base_weights":[-1.8089277E-3,2.9312212E-2,-7.259772E-2,3.3885073E-2,-6.693946E-2],"categories":[],"categories_nodes":[],"categories_segments":[],"categories_sizes":[],"default_left":[0,0,0,0,0],"id":72,"left_children":[1,-1,3,-1,-1],"loss_changes":[3.740344E-2,0E0,1.1145146E-1,0E0,0E0],"parents":[2147483647,0,0,2,2],"right_children":[2,-1,4,-1,-1],"split_conditions":[-3.9936786E0,2.9312212E-2,-9.175069E0,3.3885073E-2,-6.693946E-2],"split_indices":[11,0,8,0,0],"split_type":[0,0,0,0,0],"sum_hessian":[3.3025782E0,1.2146845E0,2.0878937E0,1.0470134E0,1.0408803E0],"tree_param":{"num_deleted":"0","num_feature":"370","num_nodes":"5","size_leaf_vector":"1"}},{"base_weights":[-2.291974E-3,2.7842538E-2,-2.2682495E-2],"categories":[],"categories_nodes":[],"categories_segments":[],"categories_sizes":[],"default_left":[0,0,0],"id":73,"left_children":[1,-1,-1],"loss_changes":[3.676451E-2,0E0,0E0],"parents":[2147483647,0,0],"right_children":[2,-1,-1],"split_conditions":[-8.168059E0,2.7842538E-2,-2.2682495E-2],"split_indices":[7,0,0],"split_type":[0,0,0],"sum_hessian":[3.2664437E0,1.3062333E0,1.9602106E0],"tree_param":{"num_deleted":"0","num_feature":"370","num_nodes":"3","size_leaf_vector":"1"}},{"base_weights":[-3.867602E-4,-3.203545E-2,6.772472E-2,-1.6327148E-2,4.8012443E-2],"categories":[],"categories_nodes":[],"categories_segments":[],"categories_sizes":[],"default_left":[0,0,0,0,0],"id":74,"left_children":[1,-1,3,-1,-1],"loss_changes":[3.8090486E-2,0E0,4.4885725E-2,0E0,0E0],"parents":[2147483647,0,0,2,2],"right_children":[2,-1,4,-1,-1],"split_conditions":[5.941889E1,-3.203545E-2,-7.001661E0,-1.6327148E-2,4.8012443E-2],"split_indices":[1,0,7,0,0],"split_type":[0,0,0,0,0],"sum_hessian":[3.2581496E0,1.0500517E0,2.208098E0,1.1271629E0,1.080935E0],"tree_param":{"num_deleted":"0","num_feature":"370","num_nodes":"5","size_leaf_vector":"1"}},{"base_weights":[-2.9952085E-4,2.561435E-2,-2.447473E-2],"categories":[],"categories_nodes":[],"categories_segments":[],"categories_sizes":[],"default_left":[0,0,0],"id":75,"left_children":[1,-1,-1],"loss_changes":[3.6459908E-2,0E0,0E0],"parents":[2147483647,0,0],"right_children":[2,-1,-1],"split_conditions":[-1.0384267E-1,2.561435E-2,-2.447473E-2],"split_indices":[4,0,0],"split_type":[0,0,0],"sum_hessian":[3.2350247E0,1.5503619E0,1.6846628E0],"tree_param":{"num_deleted":"0","num_feature":"370","num_nodes":"3","size_leaf_vector":"1"}},{"base_weights":[6.465696E-5,-2.3597788E-2,2.6738055E-2],"categories":[],"categories_nodes":[],"categories_segments":[],"categories_sizes":[],"default_left":[0,0,0],"id":76,"left_children":[1,-1,-1],"loss_changes":[3.665945E-2,0E0,0E0],"parents":[2147483647,0,0],"right_children":[2,-1,-1],"split_conditions":[-4.006002E2,-2.3597788E-2,2.6738055E-2],"split_indices":[0,0,0],"split_type":[0,0,0],"sum_hessian":[3.2286997E0,1.7758201E0,1.4528797E0],"tree_param":{"num_deleted":"0","num_feature":"370","num_nodes":"3","size_leaf_vector":"1"}},{"base_weights":[7.9917174E-4,-3.1260632E-2,6.590645E-2,-1.5766812E-2,4.8850138E-2],"categories":[],"categories_nodes":[],"categories_segments":[],"categories_sizes":[],"default_left":[0,0,0,0,0],"id":77,"left_children":[1,-1,3,-1,-1],"loss_changes":[3.5695013E-2,0E0,4.5478147E-2,0E0,0E0],"parents":[2147483647,0,0,2,2],"right_children":[2,-1,4,-1,-1],"split_conditions":[-6.444291E0,-3.1260632E-2,-4.3031726E0,-1.5766812E-2,4.8850138E-2],"split_indices":[5,0,6,0,0],"split_type":[0,0,0,0,0],"sum_hessian":[3.216787E0,1.0013689E0,2.2154183E0,1.2029624E0,1.0124558E0],"tree_param":{"num_deleted":"0","num_feature":"370","num_nodes":"5","size_leaf_vector":"1"}},{"base_weights":[1.0548283E-3,-2.8061105E-2,6.6295445E-2,-1.1361834E-2,4.1592006E-2],"categories":[],"categories_nodes":[],"categories_segments":[],"categories_sizes":[],"default_left":[0,0,0,0,0],"id":78,"left_children":[1,-1,3,-1,-1],"loss_changes":[3.2109655E-2,0E0,2.8385036E-2,0E0,0E0],"parents":[2147483647,0,0,2,2],"right_children":[2,-1,4,-1,-1],"split_conditions":[6.6862154E0,-2.8061105E-2,-6.8868804E0,-1.1361834E-2,4.1592006E-2],"split_indices":[2,0,9,0,0],"split_type":[0,0,0,0,0],"sum_hessian":[3.198285E0,1.1284422E0,2.0698428E0,1.043628E0,1.0262148E0],"tree_param":{"num_deleted":"0","num_feature":"370","num_nodes":"5","size_leaf_vector":"1"}},{"base_weights":[1.2981743E-3,2.327596E-2,-2.7141903E-2],"categories":[],"categories_nodes":[],"categories_segments":[],"categories_sizes":[],"default_left":[0,0,0],"id":79,"left_children":[1,-1,-1],"loss_changes":[3.629966E-2,0E0,0E0],"parents":[2147483647,0,0],"right_children":[2,-1,-1],"split_conditions":[-1.9459342E0,2.327596E-2,-2.7141903E-2],"split_indices":[11,0,0],"split_type":[0,0,0],"sum_hessian":[3.182241E0,1.8221081E0,1.3601327E0],"tree_param":{"num_deleted":"0","num_feature":"370","num_nodes":"3","size_leaf_vector":"1"}},{"base_weights":[-1.5091762E-5,2.878513E-2,-6.1644666E-2,1.9379584E-2,-4.9341477E-2],"categories":[],"categories_nodes":[],"categories_segments":[],"categories_sizes":[],"default_left":[0,0,0,0,0],"id":80,"left_children":[1,-1,3,-1,-1],"loss_changes":[3.0607058E-2,0E0,5.1530387E-2,0E0,0E0],"parents":[2147483647,0,0,2,2],"right_children":[2,-1,4,-1,-1],"split_conditions":[-8.537285E0,2.878513E-2,-1.0456503E1,1.9379584E-2,-4.9341477E-2],"split_indices":[7,0,10,0,0],"split_type":[0,0,0,0,0],"sum_hessian":[3.1749942E0,1.0238433E0,2.151151E0,1.132511E0,1.0186399E0],"tree_param":{"num_deleted":"0","num_feature":"370","num_nodes":"5","size_leaf_vector":"1"}},{"base_weights":[-3.456746E-4,1.9782811E-2,-2.6966808E-2],"categories":[],"categories_nodes":[],"categories_segments":[],"categories_sizes":[],"default_left":[0,0,0],"id":81,"left_children":[1,-1,-1],"loss_changes":[3.0591832E-2,0E0,0E0],"parents":[2147483647,0,0],"right_children":[2,-1,-1],"split_conditions":[2.1005259E1,1.9782811E-2,-2.6966808E-2],"split_indices":[3,0,0],"split_type":[0,0,0],"sum_hessian":[3.155241E0,1.964505E0,1.190736E0],"tree_param":{"num_deleted":"0","num_feature":"370","num_nodes":"3","size_leaf_vector":"1"}},{"base_weights":[-1.9762882E-3,-3.0734694E-2,6.340929E-2,-1.441249E-2,4.3638926E-2],"categories":[],"categories_nodes":[],"categories_segments":[],"categories_sizes":[],"default_left":[0,0,0,0,0],"id":82,"left_children":[1,-1,3,-1,-1],"loss_changes":[3.375174E-2,0E0,3.5620622E-2,0E0,0E0],"parents":[2147483647,0,0,2,2],"right_children":[2,-1,4,-1,-1],"split_conditions":[5.941889E1,-3.0734694E-2,-7.001661E0,-1.441249E-2,4.3638926E-2],"split_indices":[1,0,7,0,0],"split_type":[0,0,0,0,0],"sum_hessian":[3.1488194E0,1.017881E0,2.1309383E0,1.0793728E0,1.0515656E0],"tree_param":{"num_deleted":"0","num_feature":"370","num_nodes":"5","size_leaf_vector":"1"}},{"base_weights":[-1.7154657E-3,2.4640871E-2,-2.184881E-2],"categories":[],"categories_nodes":[],"categories_segments":[],"categories_sizes":[],"default_left":[0,0,0],"id":83,"left_children":[1,-1,-1],"loss_changes":[3.0602874E-2,0E0,0E0],"parents":[2147483647,0,0],"right_children":[2,-1,-1],"split_conditions":[-2.767806E0,2.4640871E-2,-2.184881E-2],"split_indices":[11,0,0],"split_type":[0,0,0],"sum_hessian":[3.1289382E0,1.3647459E0,1.7641923E0],"tree_param":{"num_deleted":"0","num_feature":"370","num_nodes":"3","size_leaf_vector":"1"}},{"base_weights":[-5.19859E-4,-2.2378407E-2,2.5250793E-2],"categories":[],"categories_nodes":[],"categories_segments":[],"categories_sizes":[],"default_left":[0,0,0],"id":84,"left_children":[1,-1,-1],"loss_changes":[3.2143947E-2,0E0,0E0],"parents":[2147483647,0,0],"right_children":[2,-1,-1],"split_conditions":[-4.006002E2,-2.2378407E-2,2.5250793E-2],"split_indices":[0,0,0],"split_type":[0,0,0],"sum_hessian":[3.1230638E0,1.7295114E0,1.3935524E0],"tree_param":{"num_deleted":"0","num_feature":"370","num_nodes":"3","size_leaf_vector":"1"}},{"base_weights":[3.4103994E-4,2.3915226E-2,-2.2536963E-2],"categories":[],"categories_nodes":[],"categories_segments":[],"categories_sizes":[],"default_left":[0,0,0],"id":85,"left_children":[1,-1,-1],"loss_changes":[3.0623073E-2,0E0,0E0],"parents":[2147483647,0,0],"right_children":[2,-1,-1],"split_conditions":[-1.0384267E-1,2.3915226E-2,-2.2536963E-2],"split_indices":[4,0,0],"split_type":[0,0,0],"sum_hessian":[3.112542E0,1.4894829E0,1.623059E0],"tree_param":{"num_deleted":"0","num_feature":"370","num_nodes":"3","size_leaf_vector":"1"}},{"base_weights":[5.7884114E-4,-2.1133075E-2,2.4507152E-2],"categories":[],"categories_nodes":[],"categories_segments":[],"categories_sizes":[],"default_left":[0,0,0],"id":86,"left_children":[1,-1,-1],"loss_changes":[2.9415755E-2,0E0,0E0],"parents":[2147483647,0,0],"right_children":[2,-1,-1],"split_conditions":[-6.9217124E0,-2.1133075E-2,2.4507152E-2],"split_indices":[7,0,0],"split_type":[0,0,0],"sum_hessian":[3.1073122E0,1.7268145E0,1.3804976E0],"tree_param":{"num_deleted":"0","num_feature":"370","num_nodes":"3","size_leaf_vector":"1"}},{"base_weights":[1.2348081E-3,-1.9883327E-2,2.3512444E-2],"categories":[],"categories_nodes":[],"categories_segments":[],"categories_sizes":[],"default_left":[0,0,0],"id":87,"left_children":[1,-1,-1],"loss_changes":[2.6550395E-2,0E0,0E0],"parents":[2147483647,0,0],"right_children":[2,-1,-1],"split_conditions":[-4.006002E2,-1.9883327E-2,2.3512444E-2],"split_indices":[0,0,0],"split_type":[0,0,0],"sum_hessian":[3.1006567E0,1.7286035E0,1.3720533E0],"tree_param":{"num_deleted":"0","num_feature":"370","num_nodes":"3","size_leaf_vector":"1"}},{"base_weights":[1.7604379E-3,-2.512055E-2,2.0562187E-2],"categories":[],"categories_nodes":[],"categories_segments":[],"categories_sizes":[],"default_left":[0,0,0],"id":88,"left_children":[1,-1,-1],"loss_changes":[2.9099945E-2,0E0,0E0],"parents":[2147483647,0,0],"right_children":[2,-1,-1],"split_conditions":[-5.743781E0,-2.512055E-2,2.0562187E-2],"split_indices":[5,0,0],"split_type":[0,0,0],"sum_hessian":[3.0916092E0,1.2444739E0,1.8471354E0],"tree_param":{"num_deleted":"0","num_feature":"370","num_nodes":"3","size_leaf_vector":"1"}},{"base_weights":[1.18452386E-4,2.1927638E-2,-2.361602E-2],"categories":[],"categories_nodes":[],"categories_segments":[],"categories_sizes":[],"default_left":[0,0,0],"id":89,"left_children":[1,-1,-1],"loss_changes":[2.9257605E-2,0E0,0E0],"parents":[2147483647,0,0],"right_children":[2,-1,-1],"split_conditions":[6.121655E-1,2.1927638E-2,-2.361602E-2],"split_indices":[4,0,0],"split_type":[0,0,0],"sum_hessian":[3.085387E0,1.6401433E0,1.4452438E0],"tree_param":{"num_deleted":"0","num_feature":"370","num_nodes":"3","size_leaf_vector":"1"}},{"base_weights":[-3.287442E-4,-2.7489237E-2,5.937209E-2,3.877102E-2,-1.1065849E-2],"categories":[],"categories_nodes":[],"categories_segments":[],"categories_sizes":[],"default_left":[0,0,0,0,0],"id":90,"left_children":[1,-1,3,-1,-1],"loss_changes":[2.7683413E-2,0E0,2.5440913E-2,0E0,0E0],"parents":[2147483647,0,0,2,2],"right_children":[2,-1,4,-1,-1],"split_conditions":[5.941889E1,-2.7489237E-2,2.1005259E1,3.877102E-2,-1.1065849E-2],"split_indices":[1,0,3,0,0],"split_type":[0,0,0,0,0],"sum_hessian":[3.0806975E0,1.0065389E0,2.0741587E0,1.0033321E0,1.0708266E0],"tree_param":{"num_deleted":"0","num_feature":"370","num_nodes":"5","size_leaf_vector":"1"}},{"base_weights":[-1.4462191E-4,2.1386027E-2,-2.3888364E-2],"categories":[],"categories_nodes":[],"categories_segments":[],"categories_sizes":[],"default_left":[0,0,0],"id":91,"left_children":[1,-1,-1],"loss_changes":[2.874526E-2,0E0,0E0],"parents":[2147483647,0,0],"right_children":[2,-1,-1],"split_conditions":[-8.390546E0,2.1386027E-2,-2.3888364E-2],"split_indices":[8,0,0],"split_type":[0,0,0],"sum_hessian":[3.0631347E0,1.6675946E0,1.3955401E0],"tree_param":{"num_deleted":"0","num_feature":"370","num_nodes":"3","size_leaf_vector":"1"}},{"base_weights":[-7.1838166E-4,2.0813424E-2,-2.528754E-2],"categories":[],"categories_nodes":[],"categories_segments":[],"categories_sizes":[],"default_left":[0,0,0],"id":92,"left_children":[1,-1,-1],"loss_changes":[2.960315E-2,0E0,0E0],"parents":[2147483647,0,0],"right_children":[2,-1,-1],"split_conditions":[-1.9459342E0,2.0813424E-2,-2.528754E-2],"split_indices":[11,0,0],"split_type":[0,0,0],"sum_hessian":[3.055025E0,1.753852E0,1.301173E0],"tree_param":{"num_deleted":"0","num_feature":"370","num_nodes":"3","size_leaf_vector":"1"}},{"base_weights":[-1.6090038E-3,2.3476306E-2,-1.9127384E-2],"categories":[],"categories_nodes":[],"categories_segments":[],"categories_sizes":[],"default_left":[0,0,0],"id":93,"left_children":[1,-1,-1],"loss_changes":[2.5087463E-2,0E0,0E0],"parents":[2147483647,0,0],"right_children":[2,-1,-1],"split_conditions":[-8.168059E0,2.3476306E-2,-1.9127384E-2],"split_indices":[7,0,0],"split_type":[0,0,0],"sum_hessian":[3.0492475E0,1.2210357E0,1.8282117E0],"tree_param":{"num_deleted":"0","num_feature":"370","num_nodes":"3","size_leaf_vector":"1"}},{"base_weights":[-4.708194E-5,-2.1203067E-2,2.4130533E-2],"categories":[],"categories_nodes":[],"categories_segments":[],"categories_sizes":[],"default_left":[0,0,0],"id":94,"left_children":[1,-1,-1],"loss_changes":[2.867064E-2,0E0,0E0],"parents":[2147483647,0,0],"right_children":[2,-1,-1],"split_conditions":[-6.9217124E0,-2.1203067E-2,2.4130533E-2],"split_indices":[7,0,0],"split_type":[0,0,0],"sum_hessian":[3.0436234E0,1.6859204E0,1.3577031E0],"tree_param":{"num_deleted":"0","num_feature":"370","num_nodes":"3","size_leaf_vector":"1"}},{"base_weights":[6.9738855E-4,-2.4737764E-2,1.7599236E-2],"categories":[],"categories_nodes":[],"categories_segments":[],"categories_sizes":[],"default_left":[0,0,0],"id":95,"left_children":[1,-1,-1],"loss_changes":[2.4297407E-2,0E0,0E0],"parents":[2147483647,0,0],"right_children":[2,-1,-1],"split_conditions":[6.6862154E0,-2.4737764E-2,1.7599236E-2],"split_indices":[2,0,0],"split_type":[0,0,0],"sum_hessian":[3.037082E0,1.0739344E0,1.9631474E0],"tree_param":{"num_deleted":"0","num_feature":"370","num_nodes":"3","size_leaf_vector":"1"}},{"base_weights":[-1.2864863E-3,2.3529887E-2,-1.9092288E-2],"categories":[],"categories_nodes":[],"categories_segments":[],"categories_sizes":[],"default_left":[0,0,0],"id":96,"left_children":[1,-1,-1],"loss_changes":[2.5023924E-2,0E0,0E0],"parents":[2147483647,0,0],"right_children":[2,-1,-1],"split_conditions":[-8.168059E0,2.3529887E-2,-1.9092288E-2],"split_indices":[7,0,0],"split_type":[0,0,0],"sum_hessian":[3.0299585E0,1.2166412E0,1.8133174E0],"tree_param":{"num_deleted":"0","num_feature":"370","num_nodes":"3","size_leaf_vector":"1"}},{"base_weights":[2.0620412E-4,-2.3738258E-2,1.8828543E-2],"categories":[],"categories_nodes":[],"categories_segments":[],"categories_sizes":[],"default_left":[0,0,0],"id":97,"left_children":[1,-1,-1],"loss_changes":[2.4938554E-2,0E0,0E0],"parents":[2147483647,0,0],"right_children":[2,-1,-1],"split_conditions":[-5.743781E0,-2.3738258E-2,1.8828543E-2],"split_indices":[5,0,0],"split_type":[0,0,0],"sum_hessian":[3.02444E0,1.2166083E0,1.8078316E0],"tree_param":{"num_deleted":"0","num_feature":"370","num_nodes":"3","size_leaf_vector":"1"}},{"base_weights":[-1.0783764E-3,-1.8295407E-2,2.5149312E-2],"categories":[],"categories_nodes":[],"categories_segments":[],"categories_sizes":[],"default_left":[0,0,0],"id":98,"left_children":[1,-1,-1],"loss_changes":[2.5555208E-2,0E0,0E0],"parents":[2147483647,0,0],"right_children":[2,-1,-1],"split_conditions":[6.99299E1,-1.8295407E-2,2.5149312E-2],"split_indices":[1,0,0],"split_type":[0,0,0],"sum_hessian":[3.0189445E0,1.9352976E0,1.0836468E0],"tree_param":{"num_deleted":"0","num_feature":"370","num_nodes":"3","size_leaf_vector":"1"}},{"base_weights":[9.6261024E-4,-1.9156901E-2,2.193302E-2],"categories":[],"categories_nodes":[],"categories_segments":[],"categories_sizes":[],"default_left":[0,0,0],"id":99,"left_children":[1,-1,-1],"loss_changes":[2.3421122E-2,0E0,0E0],"parents":[2147483647,0,0],"right_children":[2,-1,-1],"split_conditions":[-9.116722E0,-1.9156901E-2,2.193302E-2],"split_indices":[10,0,0],"split_type":[0,0,0],"sum_hessian":[3.009943E0,1.6460303E0,1.3639128E0],"tree_param":{"num_deleted":"0","num_feature":"370","num_nodes":"3","size_leaf_vector":"1"}}]},"name":"gbtree"},"learner_model_param":{"base_score":"5E-1","boost_from_average":"1","num_class":"0","num_feature":"370","num_target":"1"},"objective":{"name":"binary:logistic","reg_loss_param":{"scale_pos_weight":"1"}}},"version":[3,0,3]}